6640 50
Best 0.377128 0.190863 0.158160 0.439899 0.679695 0.460638 -0.294508 -0.301672 -0.253435 -0.014697 0.331801 -0.137799 -0.398588 0.370412 0.130996 0.109130 -0.094505 0.481712 -0.216175 0.267304 -0.448965 -0.585046 -0.089443 -0.272915 -0.100962 0.249576 0.000057 0.150446 -0.182263 0.279889 0.201795 -0.359244 -0.334573 0.345547 0.079655 0.697300 0.617570 -0.374813 0.336038 0.147605 -0.097053 0.007899 0.442218 -0.079962 0.069104 0.462903 0.354520 -0.319090 -0.053136 0.236238
screech 0.592760 0.062252 0.100600 0.374140 0.386280 0.492185 0.078591 0.505549 -0.054679 0.382531 -0.079353 0.665858 0.256795 0.552651 0.458539 0.515553 0.418772 0.684934 0.646959 0.056705 0.190468 -0.148040 -0.149259 0.205372 0.635536 0.267586 0.269564 0.112463 0.381785 0.047444 0.578079 0.434815 0.004265 0.542730 0.467240 0.221661 0.062256 0.687834 0.736982 0.002529 -0.054185 0.051346 0.429203 -0.123517 -0.021848 0.570871 0.011116 -0.183663 0.179056 0.461897
meeting 0.019576 0.348778 -0.041741 0.522890 0.715368 -0.048520 -0.651618 0.186577 0.197799 0.108617 -0.207632 -0.054613 0.281897 0.339937 -0.303094 -0.142925 -0.602917 -0.026973 -0.329049 0.244734 0.185872 -0.393696 -0.706004 -0.136125 0.064497 -0.415754 0.007563 -0.646769 0.262511 -0.216929 -0.097161 -0.255791 0.245502 -0.082904 0.302530 0.230985 -0.306043 -0.764734 -0.361775 -0.018708 0.013802 -0.628737 0.434049 -0.457216 -0.052218 -0.449352 0.155809 0.433081 -0.129603 0.459468
week 0.568602 -0.078327 -0.695236 0.009383 0.955368 -0.500309 -0.982184 -0.415944 -0.286029 -0.059979 -0.050892 -0.130308 0.013652 0.053827 0.043085 0.005949 -0.592751 -0.399504 -0.407782 0.272905 0.087661 -0.119695 -0.861959 -0.159743 0.322050 -0.186066 -0.110664 -0.897848 0.141649 0.177071 -0.378062 -0.434049 0.272256 -0.098347 -0.327550 0.980749 0.433834 -0.776318 -0.415335 -0.408474 0.258190 -0.546699 0.218093 -0.212047 -0.324636 -0.239783 -0.785726 -0.034669 -0.612545 -0.092688
tightened 0.529842 0.552985 -0.039257 0.202318 0.332769 0.347398 -0.312230 0.566115 0.582112 0.357286 0.248095 -0.211671 0.775859 0.468056 0.043987 0.568102 0.316142 -0.133403 0.618027 0.450033 0.102618 0.352827 0.275566 0.393959 0.659515 0.026249 0.552067 -0.103580 0.663183 -0.192560 0.148229 -0.140208 0.563541 0.433516 0.669691 0.484062 0.092662 0.334347 0.473393 0.168783 0.221483 0.511462 -0.001081 0.374533 0.261858 0.166508 0.089342 0.068756 0.528100 0.390062
Charlie 0.408758 0.248591 -0.537069 0.156428 0.885596 -0.278595 -0.511610 0.228555 -0.437269 -0.324964 0.278154 -0.176191 -0.060109 0.222222 0.330790 -0.304404 -0.133614 -0.260250 -0.098899 -0.418689 -0.170737 -0.162702 -0.445287 0.468699 0.238390 -0.200478 -0.143313 -0.716394 -0.575455 0.150659 -1.113370 -0.290555 -0.237580 -0.257725 -0.161411 0.735393 0.350555 -0.828072 0.242459 -0.523537 -0.439421 -0.190785 -0.146272 -0.176154 -0.289839 -0.060443 -0.213955 -0.367688 -0.159811 -0.190701
number 0.158925 0.178219 -0.029967 0.275175 0.762575 -0.373076 -0.501122 0.365650 -0.257034 -0.391937 0.474950 0.133493 -0.056588 0.528571 -0.098184 0.038834 -0.231752 -0.072649 -0.031325 -0.181761 0.143980 -0.684117 -0.844874 0.565743 -0.251787 -0.341240 -0.226447 -0.913151 0.166285 0.132271 -0.974626 0.127902 -0.729043 -0.226498 -0.275636 0.331081 0.578170 -0.551942 -0.345394 -0.610437 -0.340175 -0.744416 0.338873 0.144816 -0.239657 -0.419527 -0.296315 -0.124464 -0.252679 0.331849
sharper 0.459536 0.706493 0.497406 0.835964 0.841547 0.715935 0.196331 0.000552 -0.099076 0.592314 0.261405 0.500959 0.498777 0.849614 0.197214 0.319682 0.071907 0.190965 0.431587 0.871309 0.327090 0.606032 0.571069 0.343093 0.818853 0.441732 -0.060471 0.066909 0.497261 -0.004338 0.446498 0.500331 0.293288 0.570492 0.009926 0.973504 0.922143 -0.041454 0.773954 0.661299 0.847041 0.639973 0.698478 0.377128 0.074564 0.264161 0.266287 0.186943 0.781208 0.308010
stuffed 0.591226 0.570950 -0.146386 0.569588 0.822064 0.553802 -0.320246 0.573190 0.473742 -0.187710 0.406506 0.641045 0.226677 0.416122 0.142729 0.369940 0.056207 0.389747 -0.014886 -0.020175 -0.015138 -0.092498 0.319566 0.249642 0.574985 -0.212556 0.165644 -0.452916 -0.144271 -0.194126 -0.035368 -0.078613 0.309102 0.570462 -0.016768 0.565773 0.226013 0.336495 0.569863 -0.109989 0.265042 0.325738 0.319615 0.531926 0.257715 -0.051205 0.499515 0.412624 0.411109 0.300192
pattern -0.040240 -0.214565 -0.161939 0.502309 0.715467 0.643116 0.407333 -0.319913 0.324108 0.494036 0.508307 0.433719 0.147314 0.228774 0.177623 -0.027100 0.565382 -0.025787 -0.299652 0.600517 0.019474 -0.337429 0.620852 0.387153 0.444875 0.149551 0.329160 -0.393816 0.376550 0.395984 -0.427898 0.481702 0.166022 -0.364411 0.379710 -0.110746 0.109244 0.181502 0.212514 0.481846 0.613367 0.651423 -0.010854 -0.120332 0.490487 -0.331413 0.643243 0.214922 0.268549 0.561882
tinge 0.772725 0.727034 0.104939 0.207238 0.544185 0.257453 0.579909 0.216043 0.224546 0.176469 0.671056 0.790071 0.743482 0.110227 0.415015 0.765838 0.469539 0.490331 0.036212 0.704892 0.326894 0.404203 -0.041938 0.180763 0.587554 0.646911 0.477253 0.702560 0.349667 0.023911 0.033866 0.455355 0.239592 -0.144378 0.767279 0.470263 0.407857 0.005985 0.753397 0.432948 0.424188 0.330794 0.211223 0.662704 0.739267 0.267532 0.160725 0.518576 0.355664 0.276981
Flocks 0.485885 -0.030847 0.087741 0.409033 0.596837 0.664595 0.376157 0.217718 0.041245 0.417971 0.136389 0.472177 0.361671 0.119047 0.094873 -0.358659 -0.198728 0.482657 -0.035071 0.652170 0.548786 -0.249938 -0.032345 0.420810 0.720202 0.510394 -0.318391 0.382324 -0.264161 0.402242 0.370587 -0.030544 -0.264818 0.343727 0.157612 -0.180893 -0.173071 0.073033 -0.275436 -0.111847 -0.175473 -0.018801 0.329106 0.213099 0.200077 -0.196597 0.457683 0.234803 -0.052205 0.368724
enormous 0.226932 0.023077 0.269774 -0.046762 0.536711 -0.390631 -0.664607 0.375313 -0.298450 -0.034102 0.373603 0.425502 0.135021 0.172066 0.186192 0.102469 -0.357289 -0.422312 -0.046476 0.338840 0.245704 -0.275723 -0.182909 0.079616 0.488816 -0.261933 -0.568172 -0.375902 0.191176 0.458928 -0.360327 -0.078892 -0.130559 0.096382 -0.104983 0.062182 -0.039764 0.068409 -0.457685 0.069590 -0.062226 -0.224527 0.244232 -0.285354 0.550248 0.255594 -0.272631 -0.509319 -0.356904 0.023040
earsplitting 0.817181 0.081302 0.010954 0.111208 0.527907 0.166870 -0.060091 -0.076116 0.315171 0.385782 0.326801 0.572719 0.901974 0.935715 0.375930 0.432546 0.020627 0.433295 0.279382 0.808062 0.409302 0.674454 0.556771 0.698932 0.255132 0.483606 0.574991 0.091702 0.433827 0.891247 0.666656 -0.049401 0.244462 0.577266 0.069713 0.882649 0.119142 0.063684 0.658983 0.545635 0.311676 -0.045549 0.302369 0.817412 0.453065 0.163612 0.604642 0.601428 0.219976 0.782853
brass 0.057746 -0.495106 -0.115377 -0.338809 0.442305 0.050176 0.004426 0.364051 -0.506309 -0.081670 0.101579 0.318160 0.247110 0.574359 0.155136 -0.508266 -0.090112 0.041695 0.376156 -0.110654 0.182899 -0.073978 -0.243379 0.316777 0.045121 -0.269044 -0.271660 -0.640713 -0.150334 -0.517689 -0.246152 -0.185871 0.135916 0.081851 -0.451738 0.196268 0.400164 -0.605251 -0.369395 0.023898 0.207065 -0.053932 0.098914 0.058527 0.115290 0.102032 -0.008680 0.435872 -0.115915 0.060208
colors 0.802584 0.119662 0.512364 0.323323 0.528638 0.330981 0.151749 0.025339 -0.051488 0.481529 0.475702 0.011889 0.504473 0.302794 0.305302 0.139450 0.202519 0.849274 -0.146250 -0.158553 0.518055 0.106086 0.603710 0.729186 0.389971 0.812741 0.249447 0.573769 0.274080 0.398918 0.304077 0.256661 0.164168 0.461859 0.015513 0.916695 0.355832 0.613231 0.848137 -0.150450 0.660002 0.730270 0.413979 -0.003052 -0.208661 0.522153 0.612860 0.245233 0.259078 0.329283
question 0.407576 0.023339 -0.039880 0.255014 0.956730 -0.162430 -0.829932 0.142760 -0.417546 0.056118 -0.182903 0.031021 -0.498592 -0.060699 0.110074 -0.452058 0.153790 0.181087 0.286288 -0.554964 0.043332 -0.495926 -0.359758 0.350282 0.030948 0.159812 0.084255 -0.873699 0.268880 -0.337303 -0.924817 -0.159541 -0.297221 -0.404812 -0.015835 0.351533 0.009212 -0.039702 0.085240 -0.512515 0.161135 -0.771129 -0.088338 -0.573028 -0.440405 0.000263 0.090877 -0.177401 -0.261867 0.171401
creaked 0.078300 0.883501 0.678359 0.609232 0.893062 0.896865 0.533378 -0.083715 0.843037 0.144808 0.111624 0.624465 -0.049507 0.411628 0.906288 -0.042959 0.737432 0.467742 0.893839 0.317174 0.597513 0.369730 0.662190 0.632673 0.107589 0.207520 0.295185 0.045849 0.209810 0.914528 -0.110296 0.423042 0.355481 0.227869 0.316879 0.059660 0.529147 0.713261 0.437961 -0.008451 0.304700 -0.014004 0.641328 0.195048 0.687567 0.274917 0.403148 0.704455 -0.030199 0.294211
Knuts -0.101605 0.242396 0.105525 0.004358 0.580112 -0.131498 -0.476785 0.455632 0.051642 -0.030202 0.029880 -0.345436 0.139071 0.232682 -0.010328 0.395741 -0.182350 0.224688 0.001437 -0.144960 -0.463113 -0.213864 -0.039878 0.081610 0.197995 -0.517646 -0.411539 -0.078515 0.016429 -0.120537 -0.741698 -0.054784 -0.175964 0.207376 -0.000064 0.479737 0.115531 0.139307 -0.187050 -0.612993 0.235524 -0.432984 0.462987 0.047078 -0.426077 -0.223902 0.261276 0.015671 -0.009877 0.220806
tosh 0.253194 0.112638 0.326987 0.528004 0.717461 0.393388 0.016633 -0.027263 -0.163606 0.057603 -0.154949 0.520967 0.308868 0.207697 0.583166 0.430391 0.733189 0.304161 0.004180 0.020734 -0.143368 0.609230 0.260355 0.354870 0.539120 0.264902 0.676894 -0.194601 0.525395 0.252992 0.106583 0.257324 0.507181 0.386370 0.499835 0.305549 -0.115344 -0.057386 0.279193 -0.009210 0.432759 -0.017326 0.157618 0.711115 0.278837 0.552419 0.087723 0.289573 -0.259333 0.160639
St 0.537908 0.228430 0.384142 0.466514 0.727494 0.053811 0.496393 0.789788 0.673226 0.646468 0.340744 0.521512 0.210858 0.492005 0.641468 0.038258 0.555826 0.591453 0.101659 0.368737 0.492707 0.401085 0.551599 0.577927 0.840434 0.517366 0.551188 0.236157 0.843293 0.779202 0.342627 0.697885 0.445507 0.194315 0.942707 0.067117 0.806854 0.292782 0.407818 0.200125 0.286255 0.407930 -0.031853 -0.036009 -0.021501 0.274105 0.576155 0.096024 0.292986 0.126830
Anti 0.414093 0.182850 -0.029528 0.358802 0.479810 0.869484 0.474891 0.738582 0.027749 0.016345 0.551225 0.018323 0.434751 0.044635 0.493619 0.721267 -0.044585 0.750038 0.385000 0.816872 0.222556 0.481105 0.209245 0.515617 0.502753 0.612737 0.800537 0.663133 0.459544 0.708522 0.001399 0.316066 0.010645 0.449799 0.651514 0.333906 0.080239 0.770503 0.262972 0.072885 0.314902 0.451776 0.139014 0.432219 0.373676 0.359590 0.863594 0.019771 0.789250 0.824872
readin 0.589081 0.826016 0.395042 0.571463 0.239110 0.486765 0.471360 0.616339 0.806807 0.336123 0.003898 0.694857 0.687637 0.660361 -0.005758 0.269120 0.246365 0.006049 0.339495 0.004222 0.253369 0.125222 0.196462 0.289489 -0.028084 0.322619 0.170164 0.271835 -0.002367 0.252033 0.018514 0.608242 0.217898 0.824660 0.084481 0.335698 0.454462 0.473976 0.500816 -0.011432 0.151172 0.575764 0.622701 0.003402 0.498763 0.019035 0.639706 0.542996 0.473600 0.651929
dropping 0.241999 0.302870 -0.212732 0.120689 0.771658 0.640565 0.054816 -0.007743 0.280579 0.061467 -0.176907 -0.227334 0.046461 0.601005 0.557515 -0.181079 0.080072 0.287355 -0.099183 0.654466 0.264149 0.274331 0.041126 0.416699 0.762821 -0.136987 0.533484 -0.439795 0.165922 0.211946 0.362850 -0.278481 0.130578 -0.002596 0.194866 0.687054 0.064442 0.041669 0.192795 0.028483 0.213639 -0.179196 0.192528 0.437868 0.192091 0.059153 -0.146805 0.674685 0.313338 0.326426
Friday 0.456419 -0.053307 -0.229569 0.501776 0.946125 0.051224 0.334807 -0.339701 -0.126644 0.252625 0.581772 0.001299 0.464870 -0.124748 0.140535 0.348102 -0.529516 0.324108 0.200419 -0.414577 -0.325401 0.341442 -0.097609 0.355895 0.032521 -0.027277 0.026472 -0.011435 0.163168 -0.148556 -0.392633 0.231027 0.295920 0.195288 -0.367598 0.175700 0.449982 -0.247586 -0.332985 0.335055 0.324179 0.222376 0.508467 0.052978 -0.143962 -0.156940 -0.072387 0.209093 0.094650 -0.296787
trophy 0.042282 -0.406889 -0.051704 0.473412 0.324902 -0.054474 -0.404912 0.169956 -0.347502 -0.474189 0.579792 -0.233032 0.058651 0.103109 0.135449 -0.393096 -0.331701 -0.117892 0.410292 0.038435 -0.133260 0.363055 -0.655274 0.419442 0.046942 -0.539649 -0.324028 -0.483636 0.107434 0.501170 -0.329692 0.083272 -0.375071 0.068965 0.155125 0.586859 0.485309 -0.020278 -0.398349 -0.101287 -0.309556 0.114340 -0.117143 -0.379726 0.458366 0.274089 -0.433714 -0.215905 -0.059458 -0.334786
Flint 0.037512 0.391527 0.076040 -0.033524 0.541511 0.289369 -0.513702 -0.227253 -0.203761 -0.539075 0.293363 0.398736 -0.151033 0.131514 0.027957 0.097330 -0.236341 -0.515695 -0.173965 0.077084 -0.348979 -0.288733 -0.672108 -0.263962 0.167406 -0.414108 -0.102757 -0.749742 0.024529 0.193382 -0.746182 0.203009 -0.318588 -0.567496 -0.679482 0.968117 0.403352 -0.158676 -0.382907 -0.664801 -0.177611 -0.050126 0.141396 -0.380096 0.039551 0.297396 -0.222043 -0.511112 0.400335 -0.030104
sticks 0.156461 -0.229499 0.355819 -0.101099 1.007312 0.227326 -0.009486 0.436499 -0.130644 -0.359211 0.283268 -0.231284 0.402062 0.234628 -0.282761 -0.102456 -0.588449 0.230420 -0.001305 0.081244 -0.294569 -0.323945 -0.414096 -0.009362 -0.003510 -0.068618 -0.229821 -0.806370 -0.333044 -0.152000 -0.497166 -0.128287 -0.424586 -0.297048 -0.382952 0.357698 -0.169299 0.081566 -0.369268 -0.214463 0.056199 0.194533 -0.091843 -0.030091 0.373848 -0.066762 0.261063 -0.097734 0.318795 -0.128323
Alohomora 0.802487 0.744191 0.554443 0.068955 0.762116 0.775798 0.538646 0.318043 0.041433 0.331395 0.832857 0.474462 0.245936 0.519295 0.227331 0.145557 -0.066214 -0.019588 0.683374 0.522444 0.331730 0.368257 0.447546 0.746592 -0.018117 0.473909 0.684095 0.470471 0.027230 0.318087 0.482516 0.054754 -0.122191 0.819960 0.506168 0.151468 0.130198 0.618767 0.469602 0.571551 0.372495 0.481606 0.877476 0.541143 0.020858 0.760813 0.817774 0.765509 0.269790 0.101239
jerking 0.894801 0.834715 0.505216 0.256667 0.572073 0.562996 0.158184 0.604612 0.356897 0.164520 0.199248 0.789254 0.582697 0.321690 0.754375 0.306298 0.375239 0.295746 0.496288 0.549714 0.716840 0.139846 -0.044716 0.561873 0.371221 0.171941 0.274622 0.740719 0.545895 0.115725 -0.013838 0.224890 0.586646 0.340498 -0.063638 0.788895 -0.034581 -0.021807 0.630037 0.161287 0.267678 0.602974 0.852472 0.419010 0.599640 0.624941 0.035122 0.541923 0.284176 0.691326
shops 0.216961 -0.509814 -0.151990 0.307982 0.908312 -0.035713 -0.386937 -0.421827 -0.463050 0.142071 0.262424 -0.143600 0.267902 0.459399 -0.032051 0.146162 -0.194665 0.402162 0.085663 -0.267803 0.195505 0.061524 -0.674845 0.097638 -0.474348 -0.552163 0.080046 -0.187897 -0.147393 0.054505 -0.541468 -0.257198 -0.109880 -0.403678 -0.381783 0.286125 0.476508 -0.570031 -0.140650 -0.049747 0.001975 -0.785733 -0.036309 -0.076494 0.149738 0.048728 0.361761 -0.209766 -0.250158 -0.007943
Drafts 0.410372 0.316980 0.544277 0.224225 0.829790 0.335281 0.114981 0.671073 0.380212 0.668773 -0.087197 0.444355 0.435514 0.641795 -0.030609 0.448757 -0.200370 0.135367 0.377697 0.318191 0.402830 0.594869 0.548498 0.685968 0.244987 0.534943 -0.266633 0.490803 0.116917 0.274802 0.502525 0.094443 0.167026 -0.051262 0.417501 0.479087 0.057032 0.174212 0.435179 -0.045132 -0.155909 0.726090 0.060922 0.136524 0.207726 0.070976 0.138215 0.077283 0.068668 0.643196
Christmas 0.462937 -0.462947 -0.120619 -0.286029 1.090887 0.040230 -0.855328 0.208157 -0.599351 -0.099017 -0.131453 0.316559 -0.363087 0.091717 -0.008242 -0.008668 -0.700438 -0.136695 0.110635 0.117893 -0.005938 -0.307795 -0.542458 0.077578 0.307875 -0.201581 -0.151397 -1.024423 -0.197502 0.268023 -0.320280 -0.683510 -0.348274 -0.604162 0.261547 0.568701 0.123291 -0.961480 -0.403540 -0.326384 -0.405625 -0.175735 0.027583 -0.268781 -0.132568 0.072017 0.041909 0.302301 0.191539 0.238885
rows -0.163586 0.468894 0.223014 0.378617 0.326341 0.210243 0.036021 0.504166 -0.322774 0.363753 0.271344 0.188781 -0.111754 0.583682 0.792633 -0.230824 0.238237 0.706680 -0.078522 0.562874 0.072983 0.457388 0.433499 0.316754 -0.185574 0.516876 0.335183 0.257792 0.059045 0.687525 -0.321530 0.240153 -0.174609 0.460007 -0.079424 0.240175 0.625427 0.359983 0.429209 -0.015150 0.164550 -0.112648 0.673787 -0.204802 0.080719 0.532270 0.625692 0.370293 0.500367 0.527073
Light 0.146426 0.288741 0.260753 0.153810 0.146670 0.259132 0.129013 0.083287 0.112045 0.432291 0.177571 0.056569 0.732990 0.342717 0.382512 0.689235 0.063946 0.444015 0.083520 0.632995 0.207049 0.186749 0.475367 0.306523 -0.034301 0.216493 0.194152 0.529781 0.172514 0.807541 -0.188619 0.281416 0.701234 0.037482 0.658428 0.693371 -0.020791 0.673099 0.480684 0.232510 0.678466 -0.025730 0.028429 0.542439 0.702942 -0.052473 0.476210 -0.148927 0.218090 0.265351
brilliantly 0.287769 0.711810 0.814816 0.358603 0.911427 -0.001884 0.764968 0.408679 -0.067562 0.277138 0.885115 0.825966 0.095773 0.141967 0.740428 0.129888 0.198724 0.853228 0.015660 0.459743 0.578674 0.420864 0.526493 0.816941 0.058577 0.321782 0.017385 0.874530 0.241873 0.628661 0.383859 0.151523 0.060549 0.460582 0.643876 0.799741 0.513822 0.479773 0.472820 0.379221 0.636498 -0.012436 0.539280 0.464513 0.895041 0.785664 0.771918 0.726547 0.497925 0.805491
Tut 0.742552 0.789863 0.439621 0.067466 0.193623 0.167676 0.604223 0.066037 -0.161396 0.205448 0.075373 -0.072805 0.448865 0.325484 0.546712 0.498642 0.556722 0.622422 0.554350 0.033390 0.454174 0.457834 0.335645 0.671696 0.664561 0.437412 0.714826 -0.153582 -0.085214 -0.038238 -0.248522 0.104282 -0.067657 0.507133 0.168303 0.845862 0.207005 -0.149454 0.239431 -0.049107 0.466485 0.768393 0.010768 0.283407 0.878282 0.730636 -0.080546 0.148409 0.219794 0.278631
determined -0.188911 0.050036 -0.139268 0.310253 0.358791 0.226699 -0.120459 -0.051021 0.036507 -0.167558 0.127234 0.047153 -0.195327 0.310789 0.198428 -0.021149 -0.563403 -0.191155 0.124045 0.415591 -0.246673 0.017753 -0.533494 -0.116426 0.399828 -0.524586 0.128115 -0.351705 -0.162430 0.462809 0.208093 -0.197403 0.279159 0.005362 -0.095438 0.367345 0.324772 -0.192538 0.383260 -0.337066 0.025140 -0.405965 0.383966 0.235878 -0.330271 0.231642 0.403761 0.056136 -0.031839 -0.282584
calming 0.073894 0.018680 0.459502 0.202374 0.462080 0.267781 -0.138923 0.028517 0.325253 0.452264 0.637127 0.414526 0.551560 0.445229 0.504250 0.139797 0.366685 -0.068058 0.581240 0.364706 0.247444 0.105361 -0.003801 0.684086 0.623218 0.657115 -0.171310 -0.234335 0.490176 0.448216 -0.030688 0.150846 0.305844 0.465034 -0.111732 0.455920 0.293215 -0.155167 0.331627 -0.082355 0.411033 -0.275732 -0.175547 0.671138 0.415265 0.000300 -0.221100 0.458700 0.408733 -0.040850
headmaster 0.655097 -0.185617 0.496556 0.283324 0.034880 -0.227382 0.049711 0.027926 0.018686 0.029025 0.068180 0.439773 0.407834 0.184299 -0.194477 0.002156 0.035824 0.062764 0.553504 -0.159244 -0.129117 -0.176894 0.209298 0.308843 -0.002132 0.329249 0.526804 0.526583 0.224555 0.354286 0.124930 0.278415 0.322363 0.463119 -0.128370 0.729426 0.725513 0.411337 -0.078427 -0.178525 0.282842 0.200353 0.564185 0.308818 0.253321 0.030445 -0.274729 0.234817 0.231441 0.658105
Dead 0.513273 -0.160023 0.638660 0.522598 0.402527 0.644407 0.101488 0.036956 0.649234 0.614102 0.428147 0.594865 0.277951 0.386762 0.523836 -0.136263 0.457838 0.409085 0.383868 0.689604 0.665439 0.696377 -0.038934 0.122339 -0.019661 0.784933 0.496795 0.072286 0.686045 0.872172 -0.124113 0.047740 0.102266 0.138744 0.212515 0.456233 0.187811 0.374038 0.117955 -0.064764 0.271846 0.328983 0.689535 0.176188 -0.060996 0.528609 0.756646 0.000736 0.642423 -0.031478
slightest 0.715291 0.050871 0.704299 0.899045 0.742965 -0.019221 0.447443 0.693813 0.350784 0.789134 0.781431 0.635370 0.296102 0.169323 0.820033 0.498986 0.337202 -0.064542 0.827097 0.650147 0.098920 0.776571 0.831744 0.608736 0.590589 0.496617 0.148425 0.660957 0.196667 0.040461 -0.109256 0.145813 0.395656 0.118203 0.853530 0.856558 0.048118 0.319837 0.603388 0.829996 -0.073036 0.249920 0.579031 0.672839 0.672094 0.648828 0.322543 0.597397 0.233534 0.357663
resolution 0.436831 0.591806 0.453338 0.230737 0.710268 0.423492 0.429498 0.246009 0.493801 0.787612 0.007512 0.084366 0.426859 0.605129 0.057680 0.043917 0.747016 0.285114 0.600760 0.412903 0.610635 0.436699 0.145884 0.578341 0.540070 0.657522 0.648267 0.089189 0.582925 0.416845 -0.002069 0.291976 0.426730 -0.028478 -0.047256 0.715879 0.032261 0.791854 0.741784 0.499058 0.601364 0.091991 0.273102 0.452606 0.741279 0.573408 0.109304 0.499018 0.436010 0.795971
slyly 0.637875 0.078639 0.197158 0.882350 0.753642 0.473226 0.239694 0.331726 0.901810 0.224645 0.118467 0.627988 0.823312 0.840579 0.856022 0.666780 0.315231 0.469783 0.049565 0.140584 0.293821 0.731217 0.832542 0.298743 0.566568 0.341410 0.760482 -0.034446 0.335253 0.550330 -0.078643 0.315592 0.343523 0.213331 0.779140 0.015692 0.036553 0.793268 0.194468 0.458438 0.412303 0.319860 0.420986 0.223021 0.810181 0.513510 0.588863 -0.007762 0.478315 0.281507
younger 0.527859 -0.248405 -0.330362 -0.015570 0.274318 -0.466556 0.020126 0.175655 -0.693320 -0.247545 -0.018356 -0.324035 0.245021 0.679772 0.048741 -0.144286 -0.062435 0.480852 0.333149 0.288536 -0.240101 -0.349416 -0.530301 -0.173382 0.325017 0.349648 -0.412398 -0.394647 0.127275 -0.386986 0.129596 -0.091416 -0.054131 0.206525 0.280435 0.611166 0.171906 -0.217198 -0.104650 -0.427069 -0.056254 -0.282827 0.457085 0.365120 -0.365489 -0.249351 0.275207 0.341820 0.301194 0.179705
enter 0.708801 0.138063 -0.182573 0.559736 0.468336 0.002282 0.250722 0.505888 0.671951 -0.022810 0.502491 0.724111 0.180262 -0.099131 -0.168259 0.497454 -0.054060 0.716876 -0.117661 0.343091 -0.119082 0.539945 -0.012486 -0.145887 0.425422 0.194827 0.222928 0.434591 0.407478 -0.207395 -0.077469 0.678185 -0.138142 0.122544 0.057317 0.146249 0.342233 0.065741 -0.143817 0.551476 0.460901 0.695292 0.626527 0.229962 0.449825 0.093988 0.439363 0.483208 0.730476 0.447326
Somehow 0.393800 0.665343 0.096365 0.419458 0.148749 0.442100 0.711866 0.076710 0.640078 0.309522 0.075908 0.503596 0.515486 0.545165 0.221829 0.196715 0.723046 0.510089 0.826861 0.116672 -0.004744 0.752616 0.335520 0.579356 0.643018 0.440490 0.356189 0.233240 0.819273 0.498053 0.703425 -0.031771 -0.023951 0.383794 0.299860 0.148188 0.516558 0.840331 0.257913 -0.081006 0.574644 0.583745 0.189185 0.755298 0.080565 0.340927 0.604998 0.311729 0.270119 0.076003
thanked 0.969731 0.435350 0.885812 0.733724 0.064425 0.452974 -0.031780 -0.087510 0.294032 0.261629 0.049684 0.329030 0.031463 0.816764 0.632427 0.572151 0.038784 0.332520 0.669147 0.382097 0.052108 -0.018396 0.045786 0.595673 0.373458 0.303701 0.805191 0.717201 0.625287 0.805480 0.373061 0.692679 0.798627 0.104020 0.261012 0.895690 0.173485 0.800188 0.707371 -0.064560 0.706162 0.294892 0.181704 0.520317 0.140858 0.298474 0.561429 0.516569 0.123019 0.018265
Ronan 0.614065 -0.701093 0.233246 -0.357625 0.336235 0.278398 -0.224481 0.081349 -0.849136 -0.313302 0.027238 0.359080 0.306046 0.004405 -0.301338 -0.186247 -0.061010 0.125778 0.306067 0.352527 -0.383358 -0.719515 -0.845614 0.328372 -0.370480 -0.781372 -0.105437 -0.704286 0.261605 0.336614 -0.420773 0.177691 -0.167827 -0.259280 -0.382232 1.026471 0.141688 -0.656376 0.103732 -0.504409 0.157572 -0.160070 0.392363 -0.078508 0.425928 -0.472658 -0.311795 0.054501 -0.449223 -0.300277
coils 0.070098 0.516459 0.228256 0.570486 0.175534 0.032975 0.448312 0.068728 0.787391 0.078194 0.100286 0.736952 0.698640 0.529716 0.342882 0.322354 0.089238 0.137009 0.577923 -0.033452 0.579296 0.799526 -0.142076 0.785074 0.370879 0.202715 0.735226 0.759490 0.139206 0.360126 0.584250 0.613394 0.040622 0.653907 0.722073 0.741331 0.826434 0.077868 0.298140 -0.070453 0.668089 -0.056804 0.556698 0.490924 0.526512 0.330687 0.819610 0.318281 0.155670 0.045416
customer 0.691227 0.040737 0.071197 0.390767 0.801339 0.655181 0.195844 0.687970 -0.009065 0.856262 0.796817 0.239913 0.229738 0.750822 -0.106659 0.015963 0.208333 0.366430 0.074197 -0.018453 0.048715 0.741394 0.074413 0.404331 0.752778 0.783165 -0.106326 0.190634 -0.019793 0.349002 0.777074 0.709857 -0.069228 0.569619 -0.055395 0.278395 0.749886 0.175300 -0.092154 0.076164 0.063418 0.306767 0.498301 0.310109 0.710124 0.100101 0.314525 -0.110645 0.030601 0.002197
MIRROR 0.063090 0.822757 0.522009 0.430750 0.912076 -0.046876 0.677781 0.722683 0.904928 0.734647 0.494162 0.248426 0.737474 0.450135 0.246251 0.692427 0.391721 0.688296 0.822909 0.176292 0.155439 0.457433 0.066909 0.486449 0.875352 -0.009082 -0.100998 0.414451 0.324490 0.753704 0.650015 0.319605 0.302712 0.095107 0.644408 0.359022 0.620221 0.104503 0.852650 0.748601 0.406953 0.484929 0.257069 0.835702 0.759621 0.015559 0.125161 0.364263 0.466053 0.464417
Bathilda -0.030117 0.858713 0.582952 -0.078596 0.083617 0.307674 0.738655 0.580685 0.157422 0.671516 0.667645 0.426064 0.411499 0.520997 0.383624 0.640061 0.160087 0.247969 0.652434 0.567079 0.431090 0.455683 -0.214509 0.062841 0.100407 0.599563 0.194681 0.546976 -0.121463 0.463423 0.419265 0.559878 0.387709 0.044667 0.520945 0.205475 0.259392 0.143725 -0.081362 -0.065442 0.084098 0.124946 0.588467 -0.090422 0.095001 0.204998 0.389352 0.429885 0.039127 0.737353
OUCH 0.295897 0.429919 0.583795 0.488594 0.850390 0.414201 0.026090 0.284600 0.492144 0.578553 0.560451 0.458281 0.237834 0.704646 0.084128 0.027753 0.516502 0.911709 0.428737 0.048012 0.877858 0.492171 -0.086118 0.812564 0.202502 0.259845 0.761787 0.107540 -0.009842 0.301184 0.777536 0.641945 0.767312 0.075122 0.748938 0.495614 0.606815 0.350186 0.594015 0.377236 0.110152 0.163088 0.795263 0.533003 0.280874 0.187535 0.309719 0.763248 0.915227 0.696296
silkily 0.875037 -0.046101 -0.131107 0.126091 0.357292 0.759979 0.254323 0.080108 0.850140 -0.045243 0.186417 0.280896 0.585543 0.488570 0.054029 0.473087 0.125103 0.336145 0.613167 0.109529 0.018953 0.359660 0.449561 -0.038134 0.143530 0.583040 0.653108 0.155746 0.002610 0.011551 0.196733 0.202944 0.261421 0.150098 0.344081 0.320063 0.847437 0.071454 0.092647 0.270748 0.543498 0.161253 0.809330 0.055509 0.854463 0.608761 0.606369 -0.022210 0.772538 0.092020
Spinner 0.798549 -0.042445 0.296450 0.307341 0.829426 0.566781 0.095172 0.730760 0.166145 0.794031 0.391352 0.409595 0.539345 0.360152 0.069622 -0.153661 -0.120366 0.871120 0.027562 0.595138 0.081542 0.806274 0.742579 0.711026 0.026702 0.586071 0.477394 0.313058 0.004369 0.126241 0.374139 0.692037 0.301239 0.270421 0.048227 0.573617 0.452907 0.018664 0.745574 0.756635 0.101323 0.351588 0.865533 -0.049686 0.712556 -0.045712 0.389423 0.366819 0.617367 0.578443
wizardin 0.799081 0.605417 0.287043 0.011659 0.741440 0.353424 0.452914 0.286693 0.504840 0.176001 0.126785 0.357370 0.600390 0.422325 0.109865 0.534812 0.188019 0.352775 0.729102 0.622139 0.621516 0.295661 -0.009376 -0.005963 0.515876 0.267706 0.719169 -0.016573 0.552393 -0.141704 -0.108800 -0.116139 0.402942 0.140153 0.019625 0.122371 0.627490 -0.004837 0.286951 0.718197 0.610228 -0.074983 0.009764 0.058328 0.271132 -0.052312 0.473215 0.825719 0.269283 0.023139
motionless 0.132668 0.968843 0.476331 0.841876 0.474211 0.163758 0.502770 0.257133 0.415143 0.947432 0.450914 0.011558 -0.005958 0.568735 0.033797 0.765064 0.132317 0.282162 0.611118 0.758180 0.420020 -0.002770 0.813914 -0.010485 0.809852 0.832170 0.175229 0.037548 0.592198 0.136741 0.303883 0.833602 0.122246 0.335657 0.618158 0.389224 0.074056 0.195162 0.286141 0.622915 0.888596 0.086283 0.847791 0.522865 0.212068 0.423920 0.317016 0.085766 0.739698 0.022679
making 0.231674 -0.074603 0.209164 0.084284 0.595991 0.315984 -0.429465 -0.078394 -0.551491 -0.055466 0.601606 -0.058406 -0.049976 0.406840 0.123349 0.082020 0.026906 -0.258120 -0.371278 -0.232468 -0.049104 -0.524792 -0.593675 0.133190 0.285958 -0.224568 -0.107681 -0.385609 -0.570040 0.344065 -1.175659 -0.414402 -0.334243 -0.183784 -0.654907 1.103739 -0.063316 -0.644000 -0.364110 -0.169327 0.306566 -0.166086 0.296834 -0.459881 -0.045080 -0.005257 -0.492351 -0.493003 -0.344295 0.234740
ones 0.201465 0.217518 0.131455 -0.090043 0.397756 -0.597288 -0.476880 0.258989 -0.087446 -0.394019 0.572179 -0.117857 -0.109062 0.447352 -0.096684 -0.035322 -0.556997 -0.277593 -0.091636 0.297590 -0.099866 0.134267 -0.296765 0.533289 -0.001239 -0.448039 -0.519611 -0.814917 0.232794 0.071291 -0.535921 -0.289113 -0.431127 -0.495183 -0.159413 0.472964 0.182914 -0.572091 -0.057725 -0.651548 0.112869 -0.198755 0.526260 0.109299 0.005831 -0.282917 -0.436792 0.037642 -0.139751 -0.152215
Right -0.030016 -0.293346 0.069827 0.237481 1.174670 -0.114817 -0.586167 0.231224 -0.058163 -0.339171 0.528807 -0.269720 0.221296 0.155267 -0.024051 -0.554654 -0.689159 -0.180359 0.181927 0.006678 0.165709 -0.259074 -0.358075 -0.075935 0.251719 -0.032063 -0.181979 -0.784196 -0.206250 -0.414052 -0.643009 0.105160 0.159592 -0.233536 0.291096 0.412317 -0.091206 -0.205507 -0.362252 -0.424446 -0.037560 -0.322948 0.312991 -0.554444 -0.354723 -0.227562 -0.575120 -0.006149 -0.135654 0.103502
afternoons 0.512140 0.574902 0.101950 0.824114 0.640315 0.468254 0.575598 0.093945 0.663437 0.294384 0.759645 0.595638 0.720688 0.026715 0.524189 0.677963 0.678966 0.296714 0.589391 0.075398 0.437644 0.453169 0.577611 0.851827 0.654094 -0.158521 0.851298 0.019431 0.216818 -0.039930 0.798825 -0.010525 0.435203 0.414278 0.033464 0.492218 0.006976 0.534909 0.186864 0.335485 -0.088486 0.643956 0.741595 0.342661 0.182164 -0.053095 0.717559 0.365437 0.538849 0.488826
smoked 0.091085 -0.092072 -0.017779 0.821718 0.408340 0.377989 0.240445 0.153473 0.362580 0.172686 0.198278 0.057074 0.174436 0.622069 0.717476 0.356008 0.152305 -0.129288 0.222770 0.607013 -0.047603 0.426098 0.363156 0.290616 0.252494 0.551230 0.551690 0.328527 -0.092765 0.704510 -0.151025 0.128343 0.232852 0.130733 0.177843 0.913260 0.592045 0.659895 -0.054285 0.096747 0.426379 0.466569 0.414470 0.285948 0.653991 0.066327 0.602696 0.019390 0.145439 0.505168
pleaded 0.516303 0.352695 0.407970 0.779795 0.399772 0.982130 0.903255 0.697018 0.833099 0.594973 0.952530 0.610105 0.633238 0.499637 0.255719 0.534450 0.330406 0.832564 0.667141 0.535666 0.479146 0.262388 0.236924 0.806889 0.953913 0.249632 0.152513 0.507494 0.864877 0.618069 0.120410 0.626417 0.134446 0.162414 0.736347 0.370114 0.677902 0.224744 0.186897 0.485592 0.948805 0.815051 0.896720 0.655935 0.102454 0.940828 0.738542 0.774977 0.703310 0.502288
dormice 0.135026 0.102805 0.580896 0.590761 -0.008094 -0.040454 -0.008904 0.545005 -0.227890 -0.046555 0.560030 -0.216388 0.302803 0.790092 0.036901 0.659089 0.061894 0.089767 -0.032818 0.214013 0.478224 0.142394 -0.330703 -0.117167 -0.041979 -0.203083 0.482604 -0.295941 0.635800 -0.174719 0.581319 -0.119846 -0.184212 -0.186633 0.613242 0.552211 0.313511 0.587986 0.296975 0.376921 0.327507 -0.253155 0.305776 0.188484 0.460362 0.491812 0.130413 0.124256 0.416501 0.399142
Algie 0.378381 -0.140711 -0.067424 -0.036454 0.502543 -0.212230 -0.063980 0.061372 0.238626 0.428477 -0.137651 0.625065 0.456277 -0.060042 0.041475 0.338356 0.128248 0.422468 0.157462 0.229425 0.155425 0.212791 0.094928 0.491407 0.558609 -0.045379 -0.042769 -0.547576 -0.052233 -0.114024 -0.381367 -0.489705 0.381868 0.102751 -0.059495 0.237910 -0.300880 -0.463835 0.233442 0.259825 0.187802 -0.033790 0.371592 -0.124746 0.545112 0.390922 0.015660 -0.227686 0.099973 0.204702
For 0.110537 0.326100 -0.329429 0.021070 1.221021 -0.068625 -0.277293 0.150272 -0.523109 -0.369504 0.069074 -0.032553 0.046547 0.782862 0.124915 0.120160 -0.381136 -0.263871 -0.121150 0.002976 -0.432709 -0.551169 -0.168084 -0.058476 -0.127675 0.148797 -0.643321 -0.391576 -0.013933 0.103438 -0.977040 -0.540518 0.224542 -0.441667 -0.508947 1.014893 0.445337 -0.334831 -0.322158 -0.579479 -0.232125 -0.651714 0.206408 -0.604759 -0.029538 -0.660674 -0.479937 0.188717 -0.010633 -0.496208
Morag 0.043403 0.550407 0.751619 -0.078012 0.157473 0.213956 0.336347 -0.053594 0.074084 0.043195 0.108994 0.660723 0.206108 0.507239 0.834543 0.645815 0.230044 0.848783 0.756293 0.493432 0.737069 0.146101 0.372535 0.524883 0.830125 -0.042892 0.423959 0.737259 0.554805 0.011359 -0.002240 0.760287 0.181419 0.764325 0.199136 0.524712 0.286946 0.742414 0.298306 0.570573 0.407693 0.504487 0.701581 -0.043143 0.898617 0.024089 0.784002 0.836327 0.576675 0.197448
doubt 0.332047 -0.054248 0.493768 -0.021708 0.261162 0.086456 0.211340 0.083740 0.428124 0.283834 0.670330 -0.084203 -0.144290 0.487006 0.506643 -0.372451 0.176595 0.176721 0.402223 0.350167 0.365227 -0.310694 0.086977 0.203923 0.080386 0.157251 0.036922 -0.669554 0.427414 0.007216 0.182761 -0.137792 -0.223294 -0.144996 0.140737 0.915009 0.351076 0.317617 0.598736 0.189106 0.301125 0.022239 0.003632 0.584320 0.078735 0.346059 0.006016 -0.104012 0.029736 0.563716
drummed -0.196140 -0.061912 0.344445 -0.075503 0.131616 -0.269523 -0.455353 0.448870 0.021382 -0.256949 0.073250 -0.075747 -0.193450 0.160540 0.103188 -0.126042 -0.107179 -0.066248 0.341143 -0.149431 0.540197 0.422147 -0.306305 0.142084 0.023828 -0.417330 0.270919 -0.016803 0.197960 -0.326440 -0.103645 -0.070351 -0.190426 -0.146598 -0.105422 0.462940 0.230896 -0.408759 0.048105 -0.240328 0.344837 -0.077405 -0.258762 -0.151791 -0.082220 0.439304 -0.359144 0.197386 0.319285 0.090026
match 0.445826 -0.463405 -0.310233 -0.115367 1.289288 -0.044826 -0.679404 0.171844 -0.029080 -0.281288 0.109702 0.288331 -0.201443 0.189440 0.587594 -0.354216 -0.360428 -0.461117 -0.243855 -0.320072 -0.072484 -0.620346 -0.514708 -0.039326 -0.222578 -0.118215 -0.119929 -0.602226 -0.429183 -0.208842 -1.226010 -0.664876 -0.219570 -0.105944 -0.260845 0.698640 0.549345 -0.320672 0.219984 -0.610932 0.036560 -0.117184 0.146319 -0.116999 0.272642 0.154991 -0.352885 -0.396326 -0.497682 0.098881
puffing 0.558838 -0.092353 -0.196332 0.571346 0.828694 0.204488 0.170752 -0.285837 0.511280 -0.276890 -0.119617 -0.113501 0.139785 0.471355 0.324706 0.447499 -0.042960 0.385713 0.527883 -0.187086 0.000583 0.185896 0.213954 0.233496 0.213800 -0.179087 -0.157380 -0.153314 0.598272 0.613081 0.223285 -0.325221 0.121477 0.247232 0.271418 0.781409 -0.092634 0.153406 0.072074 0.404299 0.200889 0.291445 -0.114225 0.034436 -0.246663 0.199681 -0.031061 0.081907 0.404061 0.074327
imagined 0.226302 0.027914 0.427720 0.604049 0.964163 0.055827 0.227143 0.528253 0.502668 0.532687 0.124139 0.530413 0.686149 0.081755 0.045931 0.710505 0.380954 0.374797 0.067801 -0.153070 0.182143 0.485332 0.074044 0.303401 0.023724 -0.265662 -0.060067 -0.038211 0.150333 0.507560 0.011991 -0.147389 0.147461 0.605670 -0.139891 0.302353 0.666837 0.618347 -0.156407 0.448430 0.159538 0.363842 -0.101531 0.156278 0.589219 0.176259 0.026693 0.607323 -0.135936 0.491964
shouldn 0.501744 -0.450446 -0.172403 0.238180 0.762332 -0.124796 -0.748209 0.364377 -0.145446 0.017983 -0.314779 0.096570 -0.192439 -0.148295 0.560989 0.011741 -0.758734 0.152992 0.404768 -0.479713 0.191860 -0.634787 -0.777287 -0.308794 0.172269 -0.679174 -0.227890 -0.689310 -0.382816 0.104623 -0.288239 -0.124028 0.226308 -0.308150 -0.052161 0.758142 -0.065953 -0.349106 0.316580 -0.016402 0.108575 -0.595482 0.323337 -0.518938 -0.051291 -0.333314 -0.460288 -0.329080 -0.061117 0.039453
claw 0.610527 0.352171 0.588819 0.780274 0.568171 -0.045925 0.000632 0.085366 0.205396 0.068415 0.487482 0.070575 -0.024033 0.505214 0.429134 0.667386 0.177974 0.752486 0.671407 0.142396 -0.137914 0.447602 -0.206035 0.184017 0.348521 -0.069701 -0.153603 -0.072836 0.326170 0.655052 0.232121 -0.120498 -0.034888 0.032730 -0.188057 0.301482 -0.154941 -0.265071 0.229191 0.610176 -0.044788 0.640198 0.449395 0.294642 0.587264 0.623033 0.541029 0.438775 -0.075789 -0.011103
turning 0.384481 -0.375450 -0.349424 -0.137308 1.026176 0.023373 -0.711578 0.242330 -0.252451 -0.289515 0.021323 -0.514094 0.307843 0.190822 0.328623 -0.429392 -0.077047 -0.401281 0.061509 0.377067 -0.130159 -0.700833 -0.713443 0.156517 0.106765 -0.516495 -0.001743 -0.521848 -0.161494 -0.325181 -0.574922 -0.212865 -0.032094 -0.130704 -0.332088 0.972422 0.151556 -0.320840 -0.034706 -0.691772 0.274771 -0.136282 0.212048 -0.192618 -0.144230 -0.229252 -0.715004 0.030966 -0.331392 -0.066206
Boa 0.792203 0.312791 0.746840 0.674232 0.075104 0.095238 -0.000619 0.566816 0.653378 0.575136 -0.029395 0.652961 0.038176 -0.011631 0.763919 0.090153 -0.194026 0.001338 0.000093 0.649748 0.592754 0.226958 0.327887 0.532291 -0.035491 0.310933 0.094369 0.227873 -0.093038 -0.136080 0.468677 -0.000696 0.617754 0.286457 -0.045234 -0.079758 0.612531 0.015538 0.459385 0.232930 -0.014607 0.283730 0.893258 0.334900 0.635028 0.387246 -0.108742 0.782310 0.430704 0.442015
hitting 0.038095 -0.262632 -0.298398 0.527818 0.199208 0.484020 -0.309394 0.533660 -0.077331 -0.386211 0.643299 0.609424 -0.336818 0.137949 0.276872 -0.203534 -0.146453 0.554542 -0.036864 -0.183274 -0.231567 -0.472753 -0.631080 -0.050196 0.433781 -0.195631 0.196353 -0.631838 0.146537 0.265517 0.244451 -0.447585 0.310889 -0.208741 -0.355563 0.105573 0.461098 -0.340839 -0.089824 -0.464434 -0.153742 0.071464 0.273679 0.059700 -0.257982 0.379642 0.242233 -0.378704 0.330019 0.319102
woven 0.051057 0.149751 0.825794 0.298435 0.221602 0.178530 -0.128083 0.553843 0.637169 0.205591 0.614452 0.505165 0.215720 0.051126 0.803271 0.701242 0.374819 0.028439 0.381469 0.639848 0.544323 -0.003960 0.511473 0.497965 0.591322 0.808949 0.835214 -0.111995 0.248070 0.138148 0.016205 0.323176 0.283393 -0.062442 -0.121020 0.578265 0.485740 0.600351 0.043497 0.481822 0.100921 0.288385 0.216395 0.650610 0.678703 0.718499 0.807564 0.342708 0.831920 0.428241
ever 0.468967 -0.116360 -0.304751 -0.013578 0.812961 -0.402737 -0.746662 0.049287 -0.611957 0.084983 0.444093 -0.132500 -0.272725 0.425695 -0.053979 -0.040703 -0.426486 0.063052 -0.044649 0.163284 -0.161344 -0.137991 -0.648954 0.564052 -0.133279 -0.936169 -0.166977 -1.266700 -0.010921 -0.492144 -1.123364 -0.357055 -0.076457 0.022989 -0.000027 0.773160 0.518649 -1.155847 -0.427856 -0.724868 -0.421037 -0.309362 0.028258 -0.436884 0.350774 -0.187860 -0.228619 -0.325630 -0.334586 -0.020466
hocus 0.504778 0.740351 0.513609 0.336854 0.305724 0.702353 -0.131819 -0.024885 0.193254 0.751725 0.414701 0.376859 0.623793 0.592878 0.275805 -0.075230 0.044551 -0.020285 0.594220 0.869537 -0.073729 0.235314 0.317837 0.104963 0.065366 -0.001873 0.225676 0.165682 0.515245 0.475754 0.139954 -0.023628 0.705870 0.635636 0.075138 0.297764 0.023049 -0.207235 -0.062813 -0.097807 0.836908 -0.175547 0.154504 0.820208 0.586639 0.505697 0.380604 0.577032 -0.066858 0.380551
banquet 0.110154 -0.366932 0.385078 -0.320517 0.965213 0.402591 -0.192452 -0.034183 0.221991 -0.354269 0.283051 -0.244417 0.414281 0.657171 -0.009574 0.280396 0.306464 0.541249 -0.046139 0.240256 -0.298874 -0.388278 0.100465 0.588401 -0.098260 -0.441930 0.108142 -0.202751 -0.057148 0.169886 -0.046620 -0.399950 0.091559 -0.149801 0.274035 0.403769 0.162315 0.139291 -0.287695 -0.228843 -0.179537 0.163474 0.797976 0.006186 0.037415 0.263477 -0.360240 0.183463 -0.429497 -0.146153
Neville 0.455168 0.097832 -0.093988 0.281245 1.139571 0.180763 -0.989161 -0.188258 -0.475492 0.090713 0.085287 0.121355 -0.009203 0.242917 0.347445 -0.671342 -0.919381 -0.166552 -0.093503 -0.003463 -0.555720 -0.412050 -0.911785 0.197366 0.256094 -0.441692 -0.127564 -0.646689 -0.051333 0.105456 -0.646469 -0.527284 0.231840 -0.549753 -0.247809 1.352789 0.388128 -0.588072 -0.441120 -0.279898 -0.209139 -0.542468 0.135471 -0.219241 0.039277 -0.190557 -0.044411 -0.059110 -0.476316 -0.301705
sinister 0.929491 0.273639 0.196544 0.412929 0.482296 -0.004465 0.424595 -0.009728 0.381486 0.338698 0.305489 0.226414 0.289841 0.289014 0.029487 0.028826 0.672895 0.786436 0.410988 0.189020 0.550808 0.857413 0.613341 0.137748 0.891153 0.850139 0.197114 0.549293 0.158479 0.616698 0.182666 -0.110310 -0.078592 0.518143 0.091478 0.513469 0.192685 0.492848 0.622482 -0.084289 0.821600 -0.112780 0.112797 0.597004 0.313483 -0.002643 -0.049327 0.080783 0.351996 0.747156
tartan 0.045309 0.200468 -0.007812 0.794738 0.800246 0.235577 0.741496 0.133869 0.727367 0.054130 0.557123 0.693102 0.054916 0.674861 0.412841 0.628690 0.138775 0.587207 0.382625 0.270139 0.479826 0.819254 -0.116327 0.316404 0.433952 0.402984 0.405484 0.061412 0.199203 0.567222 0.626820 0.525766 0.173080 0.401156 0.483455 0.854843 0.024979 0.320410 0.371590 0.002943 0.608484 0.279677 0.497488 -0.038272 0.481599 0.334152 -0.072533 0.269746 0.757062 0.548298
sounds 0.736373 0.459584 0.403021 0.047929 0.688034 0.104824 -0.342263 -0.016762 -0.149518 -0.340403 0.014968 -0.137735 -0.265276 0.787728 0.789522 0.412166 -0.316441 -0.040342 0.234391 0.065978 0.520915 0.590836 0.289105 0.379910 0.327836 0.046804 0.164978 0.309577 -0.224036 0.461927 0.191279 0.237045 -0.103822 0.151184 0.055233 0.117916 -0.054407 -0.413565 0.246607 -0.097305 0.375290 0.423451 0.235048 0.593630 0.474919 0.515011 0.119325 -0.105160 0.716727 0.218068
cereal 0.437655 -0.250584 -0.411844 -0.221369 -0.167261 0.170968 0.341199 0.170147 -0.466768 0.199351 0.498443 0.097361 0.050249 -0.186043 0.241439 0.409160 -0.083181 -0.110330 0.436873 0.610480 -0.217944 -0.039469 -0.163821 0.122679 -0.217984 -0.156906 0.439560 -0.353446 0.398900 -0.050939 -0.029295 0.259623 0.256137 0.173609 0.128649 0.600500 0.536856 0.089976 -0.235816 -0.401128 -0.267316 0.256210 0.103865 -0.416541 0.009107 -0.056005 -0.408146 0.344797 0.275413 0.003574
bye 0.547758 0.006138 -0.183310 -0.128916 0.625270 0.207866 -0.854085 0.337216 0.009696 -0.096121 0.028369 -0.263299 -0.225299 -0.134115 -0.277443 -0.385517 -0.469133 -0.176160 -0.228547 0.288024 -0.418901 -0.402865 -0.177999 0.193514 0.299583 -0.123712 0.070255 -0.772274 -0.104826 0.011560 -0.795746 -0.201849 -0.248681 0.243738 0.040631 0.585736 0.142376 -0.781290 -0.254302 -0.108983 0.301738 -0.445671 0.292137 -0.502876 0.375595 0.054715 -0.145762 0.043995 -0.318114 -0.240205
drifted 0.341934 0.001461 0.296273 0.491671 0.558484 0.712559 0.489961 0.618270 0.684420 -0.160280 0.088336 0.377873 0.757950 0.348789 0.211969 0.099746 -0.088725 0.569551 -0.073310 0.068183 0.493864 0.071841 0.466036 0.250568 0.554220 0.148282 0.261765 0.032672 0.099987 -0.098205 0.274079 0.195824 0.753924 -0.173044 0.001078 0.848133 -0.002076 -0.251269 0.104464 0.007235 0.537224 0.578118 0.819887 0.225153 -0.158820 -0.128739 -0.033787 0.057008 -0.235242 -0.170422
rise 0.581452 0.221566 0.708309 0.195659 0.469595 -0.101234 0.172179 -0.082935 0.527891 0.290963 0.331987 0.529418 0.442336 0.518061 0.681047 0.542368 -0.245162 0.567784 0.117946 0.675856 0.638912 -0.132125 0.557482 0.751732 0.092505 0.527324 -0.003590 0.338385 -0.164362 0.227272 -0.033391 0.005456 0.693722 0.223039 0.413214 0.617498 0.762517 0.456717 -0.001618 0.103766 0.579860 -0.087887 0.114657 0.333228 -0.059788 0.382746 0.159483 -0.196995 -0.097530 -0.094037
types 0.033800 0.483615 0.490583 0.074262 0.036133 0.615009 0.186850 -0.099674 0.738951 0.199399 -0.088479 0.181312 0.571345 0.190323 -0.065016 0.147118 0.190010 0.292711 -0.006585 0.528809 0.252108 0.153576 0.000514 0.224672 0.725553 0.695001 -0.109549 0.440857 0.659805 0.400162 0.588282 0.728549 0.599604 0.328202 -0.128146 0.782140 0.848307 0.515723 0.757240 0.390401 -0.012628 0.168734 0.845647 0.043272 0.721784 -0.258052 -0.116873 -0.143336 0.031436 0.099425
scroll 0.504588 0.739506 0.341125 0.261626 0.244300 0.750478 0.557827 -0.135340 0.430092 0.172613 0.637054 0.084709 0.014174 0.561765 0.031136 0.404959 -0.200773 0.471632 0.889856 0.018503 -0.070197 0.756219 0.615248 0.761214 0.830413 0.690383 0.007518 0.203191 0.473307 0.146855 -0.108169 0.398995 0.081162 0.799418 0.041139 0.843229 0.117098 -0.034992 0.000537 0.019254 0.592628 0.025495 0.660465 0.741201 -0.090806 0.190158 0.498565 0.629735 0.040649 0.154486
Er -0.118967 -0.135904 -0.509896 0.150954 0.810391 0.282270 -0.834436 0.113979 -0.262875 -0.169757 0.432930 0.103218 0.082975 -0.055812 0.230765 -0.048430 -0.210279 0.341220 -0.259163 -0.531835 -0.282541 -0.341527 -0.851397 0.179410 -0.270129 -0.361952 -0.774300 -0.305347 -0.143041 0.214726 -0.730874 0.020638 0.230047 0.047563 -0.082283 0.273425 0.467064 -0.890328 -0.145179 -0.484274 0.066403 -0.097989 -0.126641 0.202604 0.265997 -0.169516 0.107163 0.208326 0.179158 -0.268925
dotted 0.371894 0.663129 0.345082 -0.049843 0.212273 0.279127 -0.253646 0.206741 -0.071484 0.268905 -0.171266 0.631758 0.700379 0.041648 -0.071862 -0.170720 0.192548 -0.136400 0.643755 0.294269 0.553138 0.199882 0.357392 0.341215 0.627530 0.467680 0.163627 -0.203892 0.198176 0.128973 0.435124 0.390284 0.393523 0.489701 0.287875 0.757963 0.401531 -0.159886 -0.087670 0.698655 0.051330 0.012784 0.228487 -0.148499 0.797338 -0.071524 -0.106201 0.206529 -0.058077 -0.136036
Men 0.055418 0.525486 0.588040 0.359046 0.897819 -0.081819 0.779048 -0.024418 0.795839 0.666953 0.247971 0.645610 0.705532 0.842313 0.759237 0.242672 -0.016803 0.281177 0.601914 0.294676 0.189726 0.536501 0.294313 0.618231 0.489376 -0.039201 0.358251 -0.091143 0.696099 0.952065 0.423280 -0.103657 0.181492 0.725805 0.554648 0.242915 0.698911 0.229126 0.024441 0.712388 0.446257 0.775436 0.328203 -0.059014 0.880859 0.042154 0.882993 0.315576 0.640029 0.728628
Destroyed 0.309951 0.138019 0.509697 0.956125 0.727515 0.363703 0.029791 0.807530 0.656948 0.656121 0.281126 0.701170 0.017806 0.125976 -0.012583 0.207221 0.360740 0.521308 0.382919 0.634267 0.208608 0.948110 0.077665 0.335822 0.055302 0.428817 0.901213 0.916392 0.866167 0.728455 0.140741 0.568987 0.698442 0.167813 0.675530 0.398118 0.278671 0.522898 -0.014580 0.784292 0.826005 0.502842 0.885764 0.376654 0.096285 -0.059514 -0.027382 0.461291 0.569340 0.849919
Pliable 0.784179 0.334225 -0.095010 0.574882 0.799804 0.117393 0.798546 0.590823 0.668389 -0.032321 0.522449 0.628510 0.097168 0.283653 -0.004660 0.635058 0.357665 0.722944 0.437369 0.668890 0.864700 0.112641 0.185583 -0.093459 0.076419 0.705979 0.660167 -0.102613 0.035208 0.320318 0.302794 0.869197 0.796768 0.571026 0.568941 0.526968 0.250696 0.359986 0.008278 0.744422 0.664848 0.095371 0.482918 0.206444 -0.095561 0.854866 0.373660 0.069741 0.023835 0.612505
nailed 0.327732 0.715134 0.436816 0.403698 0.019933 0.159143 0.184268 -0.141346 0.510307 0.626962 0.011410 0.453092 0.500257 0.407879 0.593779 -0.194246 0.116738 0.370281 0.711501 0.479092 0.168270 0.052424 -0.330605 0.777818 0.144953 0.147502 0.086722 0.014872 0.678884 0.451032 0.291720 0.038082 -0.202126 0.069932 0.050106 0.671698 0.251902 0.517168 0.541624 0.589701 0.217880 0.619024 0.589309 0.693788 0.650732 -0.219938 0.629953 -0.095760 0.079948 0.633203
spoke 0.539606 -0.136662 -0.214976 -0.047523 0.856728 0.334978 -0.855784 -0.329451 -0.121289 -0.533099 0.404429 -0.084262 0.290202 -0.059755 0.415963 -0.191296 -0.781652 -0.148077 0.477004 0.236182 -0.589952 -0.459760 -0.304330 -0.188649 0.163923 -0.719674 0.088163 -1.073111 -0.076981 -0.001632 -0.815304 -0.158692 -0.119985 -0.212861 -0.454401 0.733969 -0.044623 -0.218620 0.254438 -0.805831 -0.220890 -0.484793 0.111525 0.131625 0.121460 -0.543119 -0.142065 -0.369555 -0.353121 -0.091133
paid 0.097235 -0.133544 -0.141543 0.118258 0.310490 0.097832 0.140125 0.448550 0.311013 0.282832 0.643176 -0.128550 0.532103 -0.090559 0.646123 -0.258698 -0.145991 -0.078334 0.050854 0.344284 0.372723 -0.000929 -0.605075 -0.078504 0.167181 0.416053 -0.223248 -0.076938 0.398652 -0.205346 0.220177 0.326577 0.389621 0.265268 0.395228 0.483630 0.688965 -0.194759 0.411262 0.047628 0.283801 -0.447892 0.494140 0.224422 -0.381962 -0.191760 0.389081 -0.280460 0.018922 0.529072
wooden -0.103748 -0.382506 0.270304 0.353250 0.475562 -0.282637 -0.189963 0.564859 -0.269090 -0.189844 0.031082 0.108141 0.011863 0.785585 0.072972 -0.401190 -0.676844 0.103560 0.005736 -0.290892 0.082769 -0.185052 -0.572401 0.160806 0.426739 -0.653891 -0.206743 -0.394406 -0.124517 -0.023486 -0.605163 -0.264717 -0.110659 -0.414526 0.263902 0.275157 0.094216 -0.254803 0.122250 -0.060597 -0.125666 -0.326102 0.296025 -0.536569 -0.141205 -0.240612 0.059700 0.117124 -0.147270 0.264444
discussion 0.417435 0.371364 0.365675 0.880329 0.210043 0.298109 0.230172 0.163924 0.612756 0.592536 0.487756 0.056643 0.777547 0.062997 0.372260 0.044566 0.042258 0.858765 0.374773 0.841433 0.791436 0.092657 0.635709 0.679300 0.879120 0.818867 0.150942 0.594947 0.146931 0.020211 0.315229 -0.038348 0.105539 0.577704 0.850138 0.986078 0.732903 0.710889 0.548462 0.028116 0.676717 0.416880 0.059878 0.818695 0.773195 0.272277 0.523525 0.023954 0.524722 0.104010
carefully -0.008158 -0.176832 -0.165985 0.056264 0.956619 -0.131426 -0.331740 -0.299584 -0.601351 0.180940 0.190560 0.173675 0.090619 0.439947 -0.209467 -0.186083 -0.173537 -0.219242 -0.353183 -0.256819 -0.382806 -0.514549 -0.810202 -0.112549 0.106613 0.066049 -0.002625 -0.580083 -0.398426 0.029510 -0.383193 -0.439433 -0.006041 -0.661925 -0.170298 0.694069 0.228086 -0.694993 0.201773 -0.086902 -0.005622 -0.241399 0.561205 -0.085273 0.034862 -0.056077 -0.554937 -0.450935 -0.582192 0.324874
made -0.002068 0.141939 0.009437 0.104674 0.987968 -0.077775 -0.592105 0.050319 -0.814919 0.150004 0.646167 -0.249983 0.212008 0.229923 -0.177008 -0.227254 -0.605774 0.124653 -0.102272 0.357709 -0.055440 -0.291623 -0.539419 0.360330 -0.176835 -0.720094 -0.201774 -0.979948 -0.075922 -0.193793 -1.241963 -0.417259 -0.229759 -0.615384 -0.504249 0.790218 0.626071 -0.738998 0.013595 -0.703534 -0.137995 -0.342077 0.129117 -0.734712 0.482327 -0.382410 -0.010209 -0.096829 -0.445996 0.155992
inches -0.051696 0.294968 0.117156 0.534710 0.895345 0.180326 -0.528375 -0.133384 -0.551957 -0.368544 0.485346 -0.028930 -0.145055 -0.221288 0.135708 -0.515291 -0.653861 -0.410349 -0.076323 0.354017 0.219918 -0.569922 -0.343846 0.034715 0.207551 -0.053766 0.061140 -0.860764 -0.169129 -0.099934 -0.384049 -0.266838 0.396388 -0.316222 -0.614069 0.489121 -0.130811 -0.082238 0.579390 -0.699004 0.440221 0.029211 0.078383 0.039980 -0.121212 -0.693649 -0.143736 -0.044021 -0.250836 0.197229
hatched -0.015210 0.303794 0.449197 0.736479 0.654635 0.220387 -0.034572 0.347130 0.605271 0.431107 0.812186 0.388602 0.471198 0.927045 0.362946 0.811081 0.784592 0.609442 0.511578 0.432743 -0.066987 0.187180 0.442344 0.426161 0.666999 0.390181 0.786081 -0.082786 0.836805 0.522558 0.816015 0.512976 0.391845 0.019188 0.725195 0.011825 0.082488 0.552207 -0.009162 0.601484 0.024841 -0.046347 0.317583 0.333991 0.020585 0.677796 0.523772 0.427399 0.367771 0.428379
holidays 0.022569 0.129172 -0.483187 0.081174 0.276619 -0.056772 -0.792345 -0.139430 -0.018009 0.015617 0.006933 0.384958 -0.057356 0.292976 0.367209 -0.482261 -0.391731 0.144705 0.310609 -0.097140 -0.366833 -0.351598 -0.582444 -0.001827 -0.297319 -0.215637 -0.364132 -0.896076 0.274213 -0.330596 -0.380238 0.280842 -0.000183 0.021247 -0.245582 0.936285 0.619313 -0.828339 0.242386 -0.410962 -0.305646 -0.465179 -0.134292 0.155207 0.200866 -0.090190 -0.676180 -0.111706 -0.068058 0.011128
came 0.409556 -0.260700 -0.066323 0.291290 1.078707 -0.002471 -0.984724 0.404199 -0.716591 -0.302980 0.254107 -0.130101 -0.035560 0.051381 0.299305 -0.497639 -0.584159 0.226952 -0.061438 0.185228 0.036860 -0.118951 -0.465227 0.231274 -0.152461 -0.399355 -0.676284 -0.813220 -0.112809 -0.062318 -0.794276 -0.579230 -0.252863 -0.416278 -0.244864 0.914916 0.200393 -0.624132 0.177159 -0.339421 0.433606 -0.336045 0.093871 -0.599732 -0.023888 -0.229404 -0.330508 -0.331554 -0.456206 -0.002638
fists 0.314547 -0.108165 -0.030836 -0.234145 0.500630 -0.121294 0.177853 0.294955 0.473566 0.087263 0.381494 0.364666 0.264391 -0.058553 -0.163577 0.111176 -0.045540 0.229160 -0.032876 0.587890 0.385724 0.028328 0.326540 0.736571 0.191369 -0.335853 0.058568 -0.190216 0.188998 -0.013440 -0.305020 -0.344438 -0.222697 -0.263747 -0.245624 0.679722 0.346978 0.060533 -0.132334 0.327077 0.424134 -0.231188 0.228322 0.341159 0.132799 0.172193 -0.088651 -0.361517 0.140062 0.692104
knee -0.195676 0.145101 0.298293 0.063993 0.388188 -0.346696 -0.080040 -0.067967 -0.338977 -0.133196 0.247689 0.459847 0.206653 0.520341 -0.385901 -0.118477 -0.073360 0.356084 0.291342 0.197504 -0.117389 0.130593 0.015114 0.447966 0.361609 0.118868 -0.483555 -0.161087 0.096467 0.384349 -0.599575 0.266273 0.424823 -0.496890 -0.064947 0.747720 0.441085 -0.613805 0.392014 -0.276444 -0.446334 -0.460891 0.105859 -0.567384 0.235151 0.308757 -0.067475 -0.448893 -0.021535 -0.387672
boarding 0.799897 0.548963 -0.090468 0.026411 0.222212 0.815020 0.607799 0.315186 0.050766 0.532781 0.321923 0.141892 -0.083126 0.272883 0.036591 0.692991 0.622750 0.784071 0.017041 0.611666 0.650080 0.144825 0.533609 -0.030647 0.330899 0.275515 0.852591 0.298040 0.565017 0.616247 -0.014824 0.526296 0.905443 0.845676 0.619331 0.544556 0.784885 0.108718 0.614867 0.290200 0.171069 0.265063 0.344675 0.597612 0.870827 0.833037 0.099215 0.777626 0.372716 -0.009760
horse 0.043986 0.067084 -0.207613 0.321850 0.666165 -0.063158 -0.147959 0.480368 0.329673 -0.299007 0.345541 -0.157861 -0.006046 0.104143 -0.110302 -0.024564 -0.124089 0.474252 0.638091 0.556635 0.232960 0.086513 -0.234505 0.167169 0.545704 0.048065 0.187010 -0.226094 0.307758 0.130894 -0.366419 -0.017969 -0.272413 -0.390359 -0.133671 0.229234 -0.100955 -0.016725 0.365707 -0.235433 0.226609 -0.164819 -0.047761 -0.006513 0.036795 0.128618 -0.055786 0.186491 -0.237225 -0.216657
taunting 0.851964 0.112543 0.244729 0.873831 0.784276 0.560920 0.260071 0.814992 0.354653 -0.071631 0.249717 -0.020375 0.517817 0.321367 0.758838 0.759113 0.122875 0.497043 0.731487 -0.020907 0.672447 0.327318 0.454066 0.751241 0.366543 0.634073 -0.066616 0.766118 0.633817 -0.039104 0.250249 0.236936 0.855139 0.566152 -0.120411 0.354208 -0.018603 0.796283 0.316301 0.735542 0.903600 0.227413 0.241952 0.271805 -0.056918 0.452770 0.855230 0.409943 0.086446 0.213457
ashamed 0.546184 0.038643 0.285907 0.169481 0.371901 0.468288 0.445826 -0.196038 0.631694 0.445684 0.463697 0.507091 0.263781 0.204322 0.776957 0.278941 0.118032 0.311804 0.401337 0.703885 0.144933 0.178986 -0.231962 0.431819 0.386982 0.447569 -0.171645 0.431386 0.410165 0.106486 0.023404 0.078209 0.554430 0.150124 0.288047 0.657445 0.458290 -0.245394 -0.090443 0.384521 0.217649 0.709448 0.525082 0.228687 0.514484 -0.008273 0.097504 0.369939 0.044182 0.603532
slam 0.877304 -0.073822 0.615474 0.470385 0.975760 0.271850 -0.054457 0.789310 0.378053 0.307536 0.441869 0.384867 0.345464 0.101679 0.802218 0.301304 0.693780 0.115817 0.770889 0.826761 0.759579 0.772984 0.565284 0.878583 0.881008 0.214828 0.030349 0.702550 -0.051849 0.193619 0.063965 0.396991 0.699041 0.050818 0.184554 0.489544 0.064094 0.806886 0.702676 -0.011824 0.136535 0.471329 0.712740 0.045420 0.798164 0.109793 -0.079245 0.214193 0.550587 -0.088487
parted 0.674057 0.657667 -0.296761 -0.068877 0.108853 0.062129 0.039730 0.194010 -0.196381 -0.169320 0.439955 0.457004 0.425965 0.067170 -0.025214 0.511095 0.099538 -0.181365 -0.173018 0.130043 0.573297 -0.248435 -0.410966 0.120234 0.156739 0.475719 -0.114899 0.318867 0.445129 -0.211203 0.238702 -0.244178 0.290856 -0.070321 0.236057 0.506965 0.600872 0.059261 0.298214 0.430042 0.052637 -0.277961 0.167888 0.140066 -0.150931 -0.172366 0.532912 0.122629 0.651411 -0.081318
hesitated 0.328007 0.501444 -0.017651 0.518584 0.854077 -0.098570 -0.250337 0.654454 0.052492 0.721205 0.330555 0.469984 0.056656 0.182464 0.199324 -0.107047 -0.115655 0.521387 0.183271 0.571953 0.634301 0.530510 0.463467 0.738435 0.154708 0.372269 0.605016 0.409220 0.129656 0.510110 -0.273814 -0.146548 0.146476 0.550523 0.075256 0.675370 -0.101842 0.373028 0.548156 0.148742 0.399098 0.476304 0.671129 0.187741 -0.099462 0.442873 0.734950 -0.129382 0.347719 0.425389
Storm 0.286558 0.585846 0.492433 0.091620 0.251668 0.318411 0.585215 0.496331 0.021664 0.780986 0.037568 0.802048 -0.126600 0.537276 0.291092 0.424589 0.629304 0.561926 0.102158 0.259535 0.241347 0.371998 -0.094723 0.571643 0.580249 -0.174092 -0.063401 0.487683 0.775522 0.354927 0.304279 0.773446 0.078992 0.777765 0.357427 0.842563 0.582043 0.318847 0.551281 0.571727 0.530304 0.463235 0.651302 0.598058 0.259134 0.058639 -0.116246 0.043524 0.812299 0.313181
tone 0.759517 0.047449 0.037818 0.845858 0.905206 0.141983 0.095028 0.087839 0.772442 0.789884 0.800673 0.738573 0.719605 0.652180 0.648878 0.426971 0.769330 0.538924 0.604459 0.164691 0.894744 0.506127 0.803294 0.329547 0.189917 0.509506 0.305240 0.491070 0.739446 0.161979 0.319750 0.097092 0.756487 0.173700 0.800198 0.509026 0.552423 0.358250 0.590636 0.095759 0.490106 0.247303 0.216572 0.957103 0.440756 0.157112 0.799364 0.242210 0.751532 0.402891
strength 0.608775 0.036279 -0.145923 0.382411 0.503256 0.053359 0.420297 0.780475 0.090456 0.030698 0.182214 -0.044532 0.257910 0.775237 -0.033122 0.328173 -0.143236 0.642783 0.488998 -0.116411 0.636110 0.088682 -0.186517 0.720242 0.217977 0.569430 0.479005 -0.115272 0.447232 0.312525 0.406288 0.257376 -0.197920 0.716623 0.311881 0.715041 0.143935 0.221957 0.638708 0.031143 0.088920 0.461810 0.688530 0.022922 0.695166 0.340373 0.047756 0.630871 0.548518 0.162657
rigged 0.213206 -0.037997 0.098778 0.352612 0.561313 0.796096 0.636628 0.733951 0.831327 0.317927 0.653435 0.526555 0.341153 0.634468 0.433290 0.112246 0.599848 0.884997 0.398913 0.698727 0.730409 0.369934 0.773210 0.002530 0.868650 -0.059043 0.240369 0.589834 0.168075 0.835804 0.079323 0.556162 0.904140 0.346205 0.669939 0.560946 0.716320 0.819263 0.723242 0.507804 0.062530 0.839072 0.793770 0.837217 0.505992 0.530124 0.571705 0.542310 0.101021 0.780336
Fancy -0.121920 -0.174695 0.757121 0.553814 0.039374 0.322398 0.590528 0.503203 0.614986 0.049969 0.334595 0.102118 0.514674 0.625927 0.068471 0.054759 0.710661 0.498143 0.153296 0.107236 0.022897 -0.178682 -0.163532 0.301879 0.683655 0.148848 0.234900 0.183491 0.603150 -0.084616 -0.153646 0.762860 0.399964 0.560384 0.496455 0.453761 0.802689 0.373642 0.289177 0.311636 0.536390 0.490949 -0.056562 0.265344 -0.139178 0.153879 -0.080423 0.280765 0.716272 0.617103
clock 0.310727 0.175860 -0.044615 -0.011412 1.107868 -0.171342 -0.378184 -0.420644 -0.054010 0.021305 0.351471 0.020248 -0.003264 0.476954 0.678627 -0.490177 -0.173114 -0.355424 -0.047016 0.201659 0.164539 -0.526973 -0.496379 0.467760 0.176845 -0.325148 -0.681094 -0.975993 -0.261073 -0.053164 -0.503358 0.111968 -0.584354 -0.355495 -0.549960 0.438149 0.114848 -0.755905 -0.063924 -0.819197 0.160600 -0.230258 -0.034056 -0.331911 -0.411050 -0.167769 -0.264334 0.013462 -0.366490 -0.023513
chuckling 0.083616 0.275621 -0.048888 0.645886 0.823409 0.719248 0.393009 0.892611 0.758752 0.716895 0.447532 0.434969 0.606125 0.518161 0.890847 0.686957 -0.059650 0.697068 0.306809 0.356009 0.226653 0.642277 0.198863 0.219187 0.766146 0.262533 0.619516 0.822487 0.264173 0.729086 -0.081210 0.023223 0.891177 0.067061 -0.036321 0.808395 0.445404 -0.050986 0.482044 0.460287 0.482066 0.864457 0.913309 0.093096 0.358013 0.890522 0.202378 0.368051 0.277430 0.844022
rubies 0.469007 0.004076 0.157773 0.236880 0.532856 0.182046 0.377296 -0.131412 0.341474 0.743603 0.307370 0.205154 0.121376 0.227429 0.610900 -0.118030 0.064098 -0.113774 0.845657 0.239333 0.143023 0.564412 0.626176 0.261570 0.741787 0.103818 0.582559 0.704571 0.794929 0.432901 0.013003 0.513331 0.502480 0.231058 -0.081193 0.227531 0.425607 0.443270 0.779326 0.200675 0.263724 0.188181 0.409442 0.480682 0.770222 0.389545 -0.148656 0.826341 0.503414 0.045778
concrete 0.294949 -0.190625 -0.168599 0.206400 0.373757 0.414669 0.175855 0.168933 -0.317359 0.424099 -0.189175 -0.132265 0.058294 0.802140 0.257387 -0.075700 -0.164787 0.071771 0.579882 0.219733 0.682399 0.100888 0.578551 0.665474 0.351999 0.536867 -0.154171 -0.254939 -0.102118 0.464269 0.300520 0.647211 0.024972 0.484865 0.519188 0.839434 0.329448 0.088840 -0.240448 0.040270 -0.184513 0.499311 -0.073916 0.699679 0.029004 0.062100 0.568498 -0.085235 0.209072 -0.131339
meantime 0.112317 0.419197 0.033741 0.076790 0.659005 0.894370 0.555517 0.430128 -0.010703 0.875996 0.306287 0.534273 0.433656 0.904891 0.010742 0.639221 -0.019941 0.049838 0.054930 0.501225 0.136086 0.207105 0.525777 0.535558 0.493467 0.387910 0.636295 0.023476 0.307925 0.797798 0.335554 0.763766 -0.000196 -0.116987 0.020971 0.632426 0.193504 0.544738 0.192630 0.520404 0.809486 0.840454 0.628240 0.829504 0.175087 0.327660 0.831311 0.375990 0.618983 0.062388
topmost 0.018316 0.016696 0.045122 0.642708 0.711601 0.262298 0.492479 0.191294 0.386270 0.185735 0.343910 0.457690 0.645080 -0.055361 0.654529 0.345072 0.373746 0.751076 0.468129 0.634830 0.268791 0.788440 0.078986 0.672635 0.874496 -0.146082 0.645996 0.192711 0.012816 0.236714 -0.122501 -0.045653 0.078553 0.213078 0.078359 0.589468 0.657321 0.603690 -0.081030 0.226173 0.404296 -0.138720 0.794832 0.675563 0.599444 0.106118 -0.085381 0.170295 0.850207 0.275536
Mm 0.918552 0.416754 0.181140 0.084678 0.904730 -0.003055 0.240071 0.873966 0.108381 0.709458 0.185380 -0.075761 0.717628 0.299984 0.106899 0.258051 0.804108 0.390564 0.858142 0.575729 0.056461 0.766261 0.614454 0.389427 0.559034 0.019553 0.210376 0.430887 0.535787 0.518633 0.118004 0.639563 0.543252 0.219024 0.189379 0.823064 0.850648 0.466810 0.694902 0.039579 0.695023 0.559707 0.391382 0.135924 0.191281 0.755094 -0.074357 0.569607 0.137133 0.513893
care -0.050624 -0.124043 0.247676 0.028617 0.705352 0.011533 -0.327168 -0.314947 -0.371435 -0.071216 0.354590 0.401201 -0.052242 -0.038027 0.227294 -0.495048 -0.343771 -0.066196 0.034809 -0.038371 0.213186 -0.603794 -0.806202 -0.063304 0.232174 0.131697 0.025732 -0.493862 -0.290764 0.437584 -0.503547 -0.495047 -0.275328 -0.003574 -0.489154 1.032006 -0.076592 -0.432635 -0.161885 -0.185997 0.326713 -0.295091 0.099433 -0.443892 -0.279531 0.036208 -0.732737 0.097056 -0.546255 0.209997
greatest 0.154814 0.051359 -0.383555 -0.217834 0.496077 -0.096907 -0.095613 -0.031490 -0.326416 -0.255044 0.570705 0.479021 -0.400410 0.485325 0.028102 -0.478532 -0.042805 -0.260244 0.296901 0.072377 -0.017543 -0.315660 -0.338534 -0.019493 0.141785 -0.312328 0.165481 -0.753886 -0.114887 -0.243154 -0.291789 -0.371219 -0.209304 -0.541476 -0.537765 0.534783 0.565759 -0.861408 -0.259793 -0.031474 -0.559894 0.163600 -0.223562 0.300499 0.376229 0.226908 -0.289265 -0.326694 -0.510987 0.273704
Albus 0.323680 -0.543121 -0.056440 -0.288197 1.041936 -0.550851 -0.156617 -0.000057 -0.004004 0.089641 -0.041712 0.159094 -0.356922 -0.224782 0.132306 0.188152 -0.544256 -0.088682 -0.458441 0.287423 -0.310071 -0.332435 -0.362406 0.019010 0.016471 -0.212331 0.145593 -0.939220 -0.202095 0.362389 -0.583965 -0.198897 0.434521 -0.515953 0.049871 0.284556 0.625188 0.024895 -0.433868 0.043690 -0.680733 -0.582525 0.670094 -0.284555 0.334528 -0.519676 -0.370468 -0.322766 0.312268 0.301352
smuggle 0.216749 -0.106309 0.243760 0.141286 0.257218 -0.105863 0.373464 0.555437 -0.045227 0.097722 0.495583 0.267848 0.424667 0.597946 0.168567 0.382241 0.301333 0.261989 0.350861 0.157971 -0.038652 0.137099 -0.105704 0.774541 0.844812 0.061958 0.149205 0.267467 0.121193 0.466410 0.559085 0.170728 0.182763 0.530118 0.768694 0.154079 0.613245 0.205641 0.237015 -0.014977 0.181861 0.150787 0.375501 0.219674 0.213908 -0.014316 0.516921 -0.071809 0.741103 -0.053872
this 0.542559 -0.251277 -0.313741 -0.134021 1.219403 -0.131209 -1.480412 0.036140 -0.462510 -0.018042 0.063756 0.047627 0.117058 0.298966 0.290626 -0.249045 -0.649212 -0.039328 -0.055404 -0.075240 -0.109605 -0.437579 -0.513288 0.488571 0.124805 -0.353945 -0.411460 -0.588533 -0.293247 0.091672 -0.754318 -0.214155 -0.021929 -0.300622 -0.190414 0.790641 0.184767 -0.627789 -0.207736 -0.764983 -0.407945 -0.910776 0.234501 -0.382355 0.095854 -0.221142 -0.477444 -0.091440 -0.318768 0.279009
Wearing 0.071785 0.278604 0.189655 0.107182 0.743168 0.883425 0.517589 0.619260 -0.002348 0.371916 0.356352 0.931947 0.730613 0.025823 0.298927 0.197190 0.347886 0.938062 0.322760 0.070712 0.513793 0.566330 0.715337 0.300317 0.108161 0.105364 0.665450 0.194385 0.578525 0.140516 0.677448 0.286655 0.499400 0.304074 0.701494 0.074429 0.874909 0.153760 0.340514 0.219996 0.732024 0.334659 0.530238 0.351772 0.429798 0.841403 0.613426 0.268360 0.542263 0.095924
hates 0.701754 0.504656 0.410253 0.296544 0.351723 -0.007489 0.372929 -0.261310 0.309333 -0.238816 0.388413 0.445621 0.268550 0.644121 0.375265 0.175851 0.248018 0.025057 0.535602 0.529321 0.058504 0.363637 0.133205 0.588924 0.336155 -0.328889 0.232216 -0.236995 0.299276 -0.102542 -0.078185 0.583093 -0.116511 0.373987 0.137928 0.434347 -0.264177 -0.272082 0.011828 0.585230 0.003700 -0.081967 -0.100717 0.479170 0.069017 0.225881 0.568054 0.469675 0.295108 0.545992
lunch 0.262914 0.517226 -0.134557 0.329785 0.760408 -0.057270 0.323654 -0.190540 -0.217746 -0.084015 0.385883 0.288474 0.524799 0.301732 0.244467 -0.344765 0.181891 0.302083 0.583957 0.254303 -0.082856 -0.093357 0.401116 0.183992 0.231574 0.483633 0.103259 0.367486 -0.166350 -0.167040 -0.382943 -0.125604 -0.253290 -0.062626 -0.340961 0.114535 0.035601 -0.371750 -0.201645 0.051142 0.300714 0.265986 -0.225777 -0.151697 0.668001 -0.329401 0.514818 -0.174491 -0.143620 0.561420
orders 0.118596 0.593895 -0.051069 0.774998 0.561577 -0.213154 0.135019 -0.010237 -0.288554 0.444973 0.038012 0.179906 0.404120 0.813814 -0.099700 0.115455 0.333803 -0.163711 0.551269 0.165340 0.263812 -0.027761 -0.303490 0.529052 0.114420 0.458718 0.319945 -0.051812 -0.177393 0.376626 0.114067 0.640774 -0.219289 0.156993 -0.066747 0.191087 0.184143 0.335967 -0.024492 0.172714 0.109236 0.564739 0.511866 0.452799 0.170815 0.104574 -0.339961 -0.282631 -0.038318 0.433745
shapes 0.473198 0.123188 0.615392 0.382168 0.022203 0.182903 0.282878 0.891623 -0.023631 0.397110 0.702602 0.298338 0.758799 0.749755 0.799679 0.446150 -0.141491 0.291098 0.782391 0.775113 0.098889 0.122320 0.143489 0.422626 0.683079 -0.083592 0.547565 -0.065659 -0.102319 0.531520 0.749893 0.178002 0.558075 0.074156 0.199168 -0.018740 0.695189 0.591279 0.145127 0.654931 0.644651 0.316191 0.575253 0.661484 0.117964 -0.069921 0.314825 0.552561 0.532776 0.773103
ways 0.492749 -0.478585 -0.153134 0.053197 0.797303 -0.438243 -0.665080 0.012917 -0.190915 -0.394085 0.090869 -0.286403 0.306798 0.737374 -0.019478 0.009391 -0.371274 0.108342 0.172912 -0.380092 -0.071657 -0.115100 -0.318383 0.108671 -0.042862 -0.214941 -0.271619 -0.419713 0.182955 0.331217 -0.138531 0.264247 -0.301889 -0.179348 -0.335012 0.309541 -0.303312 -0.766028 -0.192423 -0.421762 -0.204711 -0.591861 0.277837 -0.171538 -0.172026 0.144741 0.133690 0.375946 0.157290 0.346468
mysteriously 0.663965 0.211585 0.384363 0.537423 0.507864 0.530202 0.168051 0.472739 0.807768 0.530421 0.714085 0.790000 0.704828 0.518706 0.048637 -0.157832 0.692042 0.751117 0.554323 0.813950 0.299356 0.294345 0.234747 0.851328 -0.077497 -0.105535 0.273407 0.157523 0.589756 -0.070172 0.413043 -0.125823 0.617884 0.588030 0.238812 0.195429 -0.104709 0.345398 0.607581 0.620871 0.243431 -0.015706 0.156913 0.479219 0.511424 0.353456 -0.075417 0.530057 0.652332 0.607095
DON 0.123073 0.085032 0.047259 0.000528 0.067108 -0.040646 -0.191853 0.327522 0.235426 -0.091167 -0.141296 0.444500 -0.126793 -0.073857 0.099038 0.265892 0.114299 0.500576 0.090615 -0.049389 0.476830 0.143864 -0.179860 0.420712 0.528784 0.291304 -0.128878 0.375606 -0.169246 -0.013036 0.251793 0.598743 0.493217 0.327052 -0.114235 0.867056 0.521801 0.430693 0.669718 0.064674 0.650970 -0.146275 0.645894 0.488829 0.459394 0.096454 0.127881 0.189184 0.576233 0.216071
winter 0.316890 0.133433 0.262952 0.729249 -0.043401 0.504808 -0.032237 0.644644 -0.068387 -0.044678 0.407046 0.437662 0.676541 -0.055544 0.003928 0.724081 0.345810 0.101890 0.726397 0.234895 0.608107 -0.234027 0.232303 0.523360 0.383926 0.237712 0.739992 0.246719 0.199096 0.038813 -0.036170 0.025070 0.033553 0.731154 0.136150 0.636588 -0.048263 0.296084 0.590286 0.433820 -0.140304 0.356369 0.605977 0.331404 -0.050437 0.314821 0.587721 0.386323 0.077171 0.558277
SEVEN 0.771168 0.776401 0.581475 0.589957 0.345999 0.047351 0.485639 0.554901 0.703347 0.749232 0.506160 0.108541 0.726269 0.018994 0.792005 0.179968 0.076656 0.300042 0.699672 0.589382 0.108259 0.140510 -0.046505 0.328401 0.390112 0.797847 0.922836 0.002956 0.131723 0.343124 0.012110 0.845579 0.385829 0.192538 0.015425 0.905273 0.784347 0.068430 0.950290 -0.013626 0.349614 0.055394 0.292423 0.744886 0.091545 0.317870 0.144175 0.703277 0.738342 0.679840
slugs 0.029000 0.445977 0.625848 0.646827 0.482468 0.839924 0.776047 0.156385 -0.144585 0.835971 0.085776 0.746568 0.223442 0.251030 0.867651 0.793052 0.311381 0.555485 0.133023 0.374308 -0.030318 0.293556 0.216512 -0.022148 -0.064302 -0.097123 0.117779 0.005489 0.028215 0.402767 0.159634 0.538942 0.586243 0.691584 0.584434 0.816619 0.809492 0.103145 0.795022 -0.093301 0.056893 0.179211 -0.059769 0.437545 0.348043 0.090783 -0.080160 0.505324 0.638292 0.314551
owlery 0.677618 -0.217662 -0.289688 -0.036419 0.573651 -0.269274 -0.112959 -0.280791 0.416170 0.073964 0.366449 0.260569 -0.195637 -0.036597 0.705515 0.471834 -0.286642 0.278073 0.605240 0.476831 -0.263408 -0.215481 -0.385870 0.622797 -0.134864 -0.343225 0.406092 0.024938 -0.009358 0.169707 -0.015610 -0.256075 0.106948 -0.002878 -0.060242 0.631507 0.138302 0.158968 0.401886 0.459894 0.384292 0.244776 0.031156 -0.350818 -0.143594 0.561328 0.370334 0.378607 -0.170103 0.007452
Minerva 0.405871 -0.201955 0.471732 0.274325 0.601386 0.285355 0.246823 0.205471 0.514395 0.645802 -0.093352 0.719355 -0.049472 0.123181 0.640404 -0.175010 -0.190418 0.347279 0.489082 0.658908 0.687348 -0.105955 0.334806 0.079297 0.489713 0.534503 0.645695 0.335144 0.107194 0.509463 0.022078 0.644941 -0.139190 0.030938 0.690830 0.732410 0.619629 0.063882 0.026515 0.281216 0.322341 0.559099 0.600146 0.601220 0.502115 0.088989 -0.315761 0.453942 0.511442 0.750857
twinkled 0.552893 0.515845 0.302082 0.113291 0.127398 0.218980 0.796849 0.431718 0.296824 0.852373 0.628675 0.845556 0.836194 0.372695 0.087039 0.348705 0.636544 0.600682 0.797458 0.732017 0.716466 0.621089 0.732244 0.220721 0.285039 0.201283 0.130876 0.200353 0.534877 0.237552 0.438864 0.244708 0.281116 0.109807 0.377231 0.965863 0.148147 0.666600 0.344429 0.246323 0.561337 0.707922 0.697084 0.083788 0.319456 0.098765 0.141724 0.941501 0.113066 0.622680
interested -0.004884 0.347888 -0.240743 -0.258649 1.115638 -0.355497 -0.269252 0.523090 -0.005829 -0.508543 -0.210697 0.143669 0.398312 0.313182 0.141914 0.026656 -0.509071 -0.112108 0.253801 0.236750 0.019170 0.197690 -0.046729 0.611644 0.072377 -0.504003 -0.020270 -0.189432 -0.261694 -0.343457 -0.547104 -0.164853 -0.120342 -0.224500 -0.459824 0.395634 0.337256 -0.596002 0.010451 0.222493 -0.448402 -0.260632 0.382897 -0.509690 0.117629 -0.512715 -0.288092 -0.249025 -0.508269 -0.064249
likely -0.045766 0.181089 0.551013 0.605861 0.589327 0.119699 0.246069 0.082308 -0.065361 0.293335 0.103443 0.554123 0.623793 0.246020 0.518627 0.894978 0.108311 0.345114 0.550504 -0.032413 0.129144 0.213325 0.060481 0.301158 0.498456 0.514911 -0.018880 0.027256 0.725563 0.928339 -0.055937 0.732917 0.682234 0.533440 0.061599 0.588814 0.513008 0.646542 0.260956 0.103777 0.888662 0.520727 0.377915 -0.052589 0.644827 0.426117 0.052230 0.370761 0.174237 0.307881
politely -0.075424 0.470038 -0.101391 0.617649 0.575689 -0.076141 0.128293 0.573778 0.567718 0.149251 -0.028194 0.165146 0.498189 0.675698 0.304867 0.038692 0.390318 0.305981 -0.008539 0.518606 0.184566 -0.152313 0.149007 0.019759 0.130206 0.130282 0.043202 -0.103309 0.345003 0.213834 0.642169 0.252878 0.594014 0.379798 0.557253 0.321606 0.010857 0.663044 0.723862 0.299442 -0.116743 0.336018 0.576823 0.040739 0.578346 0.752818 0.045991 0.113381 0.653401 0.021329
reflection 0.471541 -0.324657 0.249659 0.212873 0.185946 0.246334 -0.933904 -0.193814 -0.688602 -0.414838 -0.212757 0.417410 0.282638 0.355235 0.295427 0.244055 -0.175364 0.282615 -0.335936 -0.268941 0.135833 -0.261386 -0.110857 0.537839 0.125303 0.166317 0.056667 -0.442502 -0.034261 0.042585 -0.350139 0.147421 0.301841 -0.182724 0.143511 0.297604 -0.174849 -0.536024 0.384259 -0.636681 -0.155527 -0.606676 0.397801 0.273981 0.491487 -0.214924 -0.516565 -0.142857 0.198401 -0.245890
buzzing 0.111405 0.461203 0.785076 0.053067 0.078812 0.507788 -0.131141 0.002815 0.695632 0.517651 0.783572 0.159400 0.503619 -0.063344 0.332823 0.617818 0.560181 -0.006591 0.257577 0.509870 0.805606 0.837520 0.146330 0.834034 -0.018909 0.219179 0.102341 0.719031 0.162006 0.642796 0.048232 0.390451 -0.043833 0.602758 0.616157 0.738320 -0.013047 0.066014 0.089813 0.780247 0.763988 0.365729 0.802488 0.083766 0.365782 0.350784 -0.147782 0.038204 0.726351 0.269466
wide 0.405741 0.159025 0.154905 0.126815 1.007277 -0.068229 -0.254125 -0.501640 -0.202167 0.045196 0.047702 -0.023813 0.132337 -0.158466 -0.224906 -0.283340 -0.364343 -0.422487 0.012289 0.252241 -0.072497 -0.603291 -0.830911 -0.108763 0.304085 -0.550651 -0.290990 -0.470173 -0.299440 0.420468 -1.079576 -0.477320 -0.473222 0.043186 -0.456777 0.826801 0.101269 -0.679059 -0.101203 -0.255829 0.045266 -0.153611 0.442385 -0.236961 0.294342 -0.220029 -0.199272 0.187613 -0.441347 -0.007570
director 0.019735 0.338247 -0.411308 -0.241844 0.767317 -0.342922 0.106044 -0.276946 -0.277855 -0.180838 0.463603 -0.230329 0.261345 -0.321560 -0.360048 0.038491 0.309808 0.214466 0.082751 0.274092 -0.140838 -0.503554 -0.352566 0.143646 -0.140821 0.174907 0.195377 -0.727711 -0.212395 -0.216164 -0.367348 -0.088265 0.264676 0.014664 -0.346981 0.116090 0.079453 -0.707414 -0.174903 -0.317497 -0.098833 0.253322 0.126860 -0.530487 0.507406 0.317809 -0.405161 -0.042960 -0.212663 0.351732
spluttered 0.449030 0.271458 0.656877 0.283051 0.941996 0.309569 0.654455 0.700134 0.791072 0.224196 0.770599 0.883875 0.815426 0.664260 0.552019 0.799015 0.631416 0.010838 0.642679 0.148549 0.274101 0.737618 -0.147683 0.167486 0.013709 0.612481 -0.215294 0.303441 -0.040323 0.887341 -0.135643 0.369916 0.754022 0.207530 0.744742 0.864734 -0.095036 0.618539 0.004263 -0.104368 -0.033968 0.102031 0.270967 -0.174300 0.496296 0.100631 0.165371 -0.088061 -0.020482 0.593775
alternative 0.519946 -0.000558 0.545012 0.063927 0.332290 0.143027 0.057446 0.958595 0.855724 0.373927 0.486510 0.132610 0.080216 0.511704 0.487101 0.622361 0.229266 0.511091 0.891932 0.943149 0.694658 0.327665 0.109876 0.626030 0.442798 0.487468 0.032766 0.139339 0.049501 0.485545 0.038945 0.504914 0.882639 0.617522 0.655371 0.928661 0.323341 0.171633 0.062384 0.350179 0.092312 0.177655 0.201454 0.877326 0.123440 0.412473 0.961605 0.473562 0.342059 0.624684
Norris 0.072855 -0.209105 0.061463 0.013494 0.446736 0.125154 -0.325769 0.138454 -0.451526 -0.054473 0.079980 -0.489924 0.058877 0.103544 0.428403 -0.189236 -0.565964 -0.471900 -0.169105 0.160118 0.160683 -0.484588 -0.540474 -0.115462 0.096729 -0.608628 -0.316754 -0.593424 0.159537 -0.046928 -0.407632 -0.365881 -0.009878 -0.393947 0.053277 1.191719 0.205028 -0.608789 -0.091543 -0.257060 0.288956 -0.095085 0.604964 -0.580250 -0.072507 -0.714381 -0.351621 0.326028 -0.005292 -0.413392
wild -0.240317 -0.183729 -0.156424 0.033531 1.017785 -0.317520 -0.367019 0.332026 -0.202146 -0.445384 0.250144 -0.148272 -0.529169 0.478372 0.448259 -0.258890 -0.644468 0.255548 -0.241460 -0.151987 -0.328447 0.029538 -0.276637 -0.264423 -0.264604 0.011489 -0.088043 -0.790544 0.075125 -0.164735 -1.108155 0.159801 -0.273610 -0.200409 0.039372 0.988320 -0.011381 -0.804650 0.186637 0.100802 -0.187676 -0.293227 0.570548 -0.398420 0.200198 0.038630 -0.430279 -0.219500 -0.339972 -0.428324
Hanging 0.052297 0.493843 0.255119 0.093160 0.259069 0.218775 0.323893 0.396757 0.139707 0.012131 0.794684 0.504829 0.104691 0.429494 0.539159 0.119185 0.522842 0.770321 0.294339 0.748087 0.548409 0.075807 0.134156 -0.009645 0.162467 0.604911 0.726951 0.138775 0.900820 0.756730 0.648730 0.191239 0.057687 0.425762 0.009576 0.076151 0.315994 0.554530 0.843468 0.496430 0.406451 0.014993 0.223971 0.111033 0.126716 0.857097 -0.036848 0.843304 -0.052918 0.978624
paving 0.309200 0.530516 0.225031 0.443097 0.391625 0.624627 -0.222827 0.061219 0.413831 0.302701 0.855905 0.185930 0.491124 0.594148 -0.099120 -0.133961 0.034997 0.049502 0.773057 0.827807 0.021501 0.332977 0.187461 0.375519 0.102585 0.517267 -0.128850 0.678985 0.118574 0.745413 -0.142361 0.695691 0.364286 0.478371 0.250384 0.869208 0.742557 0.353752 0.601188 0.425124 0.207708 0.385550 0.142870 0.193931 0.471190 -0.064690 -0.108980 0.745366 0.190681 0.499496
victims 0.154278 0.748135 0.722243 0.724183 0.852734 0.917484 0.150182 0.763951 0.051005 0.027212 0.546022 0.122702 0.501177 0.403952 0.542125 0.192414 0.206345 -0.041887 0.317610 0.638419 0.007289 0.668569 -0.036965 0.805653 0.842325 0.259156 0.255491 0.798801 0.239339 -0.026403 0.606207 0.173175 0.226618 0.482551 0.866136 0.814528 0.263893 0.062180 0.328867 0.490751 0.504282 0.577001 0.481779 0.256361 0.621797 0.475901 -0.049084 0.798943 0.501412 -0.024915
ref 0.154266 0.870738 0.660760 0.552977 0.099089 0.685076 -0.077490 0.728414 -0.095394 0.497185 0.866119 0.097305 0.597727 0.438601 0.746132 0.603224 0.031212 0.469099 0.162974 0.729331 0.523287 0.388756 0.403999 0.254811 0.431734 0.205374 0.326290 0.368306 -0.021284 0.428191 0.268368 0.720892 0.433548 0.140259 -0.047188 0.105530 0.704113 0.562097 0.519340 -0.010194 0.859313 0.390811 0.392801 0.298187 0.618782 0.117315 0.906235 0.140480 0.057710 0.295391
dreading 0.450558 -0.255670 0.297624 0.183660 0.400734 -0.172769 0.483376 0.374857 0.635789 0.201587 -0.157467 0.252431 0.421893 0.040849 0.710024 -0.058912 -0.223827 -0.245554 0.259412 0.562133 0.005668 -0.042288 -0.417414 0.208938 0.736271 0.130308 -0.190317 0.341619 0.388890 -0.019409 0.154376 -0.204624 0.429669 0.209012 -0.353794 0.810527 0.023841 0.461293 -0.050538 -0.055842 0.603535 -0.363005 -0.027630 -0.378830 0.704614 0.395651 0.425728 0.316571 0.423056 -0.026252
element 0.919607 0.086343 -0.001066 0.931227 0.030114 0.634896 0.320064 0.040474 0.342807 0.098216 0.253123 -0.031197 0.094424 0.782230 0.904700 0.893204 0.161548 0.501168 0.575518 0.707029 0.146177 0.087811 0.274570 0.563811 0.561825 0.079749 0.035240 0.594817 0.143312 0.628974 0.356718 0.277981 -0.014109 0.829434 0.306852 0.952132 0.048575 0.440099 0.681691 0.064349 0.453746 0.866860 0.955313 -0.001743 0.478415 -0.025638 0.030180 0.342899 0.489370 0.917679
c 0.510182 -0.027168 -0.531958 0.460513 0.260157 0.305493 -0.234273 0.003614 -0.492039 -0.470093 -0.129898 -0.094795 0.478258 -0.143049 0.324682 0.004832 0.072684 -0.025014 -0.022776 0.021558 -0.378263 -0.504037 -0.250724 0.483339 -0.139417 -0.427634 0.062380 -0.224816 -0.120572 -0.371415 -0.546847 -0.136889 -0.247470 -0.353210 0.130483 0.528258 0.122960 -0.283521 0.187584 -0.374039 0.467381 -0.417329 0.052449 0.351006 -0.277443 -0.070441 -0.187872 0.219857 -0.373958 0.173997
teaching 0.152619 0.450235 0.002855 0.505970 0.520997 0.742527 0.617787 0.720195 0.567576 0.295039 0.364960 0.283361 0.524157 0.007670 0.454029 0.551723 0.259864 0.122210 0.541181 0.406475 0.001638 0.338091 0.419697 0.388006 0.187772 0.041996 0.609547 0.454874 0.107020 0.493916 0.739397 0.011168 0.834053 0.698048 -0.082520 0.510190 0.057709 0.309464 0.571147 0.825805 0.243803 0.839728 0.347811 -0.028948 0.775254 0.212510 0.145983 0.325742 0.280656 0.222476
tears 0.246440 -0.218367 -0.367594 0.616988 0.806774 0.233420 -0.339696 0.199149 -0.451789 0.186376 0.156498 -0.108147 0.039828 -0.369809 0.376548 -0.494003 0.198815 0.012120 0.153319 -0.364204 -0.413101 -0.063162 -0.126721 -0.273992 0.305014 -0.156625 -0.199400 -0.201235 -0.354226 -0.458853 -0.421318 -0.130515 -0.375949 -0.382238 0.099538 0.793709 -0.123900 -0.463381 -0.131318 0.066044 0.373200 -0.396331 0.370745 0.153533 0.180532 0.275343 -0.441179 0.227531 -0.200731 0.182300
sized -0.047842 -0.131213 0.243421 0.278222 0.535887 0.680131 0.245469 0.871515 0.824467 0.644685 0.691240 -0.104397 0.847206 0.901119 -0.067762 0.602382 0.000850 0.764519 0.833005 0.838985 0.220201 0.611864 0.052208 -0.031032 0.632156 0.291819 -0.128244 -0.069691 0.483994 -0.067320 0.492698 0.376154 -0.021715 0.212522 0.368555 0.009578 0.255419 0.226437 0.654503 0.478038 0.759700 0.019407 0.110962 0.411685 0.627087 0.755951 0.312684 0.584415 0.430144 -0.051464
Hotel -0.064153 0.510060 -0.118353 0.507222 0.745859 -0.045297 0.027761 0.079193 -0.149777 0.303636 -0.185043 0.174598 -0.125541 0.553052 -0.091313 0.219435 0.709677 0.207795 0.138152 0.043755 0.292559 -0.129685 -0.016799 0.061651 0.521105 0.193403 -0.230854 0.256515 0.100425 0.257613 0.456499 0.209906 -0.053179 -0.014778 0.459662 0.795216 0.525239 -0.301778 0.153773 0.016317 0.510066 0.343957 0.188766 -0.201204 0.554423 0.398422 0.040008 0.684516 0.136327 0.531480
potions 0.547266 0.082518 0.760068 0.779866 0.062021 0.354339 0.791248 0.166657 0.315485 0.367147 0.877301 0.060149 0.885210 0.825583 0.458666 0.184957 -0.046369 0.040382 0.815049 0.042554 -0.074081 0.651225 0.080865 0.788073 0.677119 0.660624 0.482853 0.790253 0.055609 0.570271 0.490694 0.000062 0.645216 0.149772 0.269206 0.002495 0.206176 -0.076294 0.842940 -0.075919 -0.013059 0.328787 0.374618 0.737758 0.753256 0.609938 0.315476 0.501647 0.091359 0.444081
suspended 0.098670 -0.006485 0.435563 -0.060993 0.530420 0.111962 0.089841 0.678268 0.784198 0.454795 0.396439 0.673649 0.584428 0.773246 0.514565 0.384454 0.230139 0.537759 -0.002965 0.366509 0.431793 0.476473 0.413708 0.491433 0.624631 0.381361 0.411997 -0.024389 0.278138 0.693777 0.762185 0.202532 0.140917 0.533027 0.618868 0.805016 0.540190 -0.053712 0.341855 0.081595 0.120557 -0.035343 0.786202 0.199857 0.728475 -0.125545 0.804710 0.368268 -0.023763 0.292716
nodded 0.305596 -0.383917 -0.291783 0.338498 0.812597 -0.421403 -0.745308 0.069858 0.131589 -0.215213 -0.067998 -0.180360 0.094785 0.604979 -0.325862 0.159545 -0.414292 0.216514 -0.338009 0.447125 0.035998 -0.555253 -0.173227 -0.212326 0.120836 -0.496232 0.121649 -0.234748 -0.127596 0.092717 -0.251607 -0.509761 0.189021 -0.047871 -0.179533 0.534212 0.113255 -0.726523 -0.083811 -0.081426 0.187120 0.008672 -0.158203 0.021595 0.355500 -0.351384 -0.574518 0.088400 -0.294157 -0.250717
neat 0.553772 0.113351 0.209696 0.182519 0.571389 0.386960 -0.131192 0.446249 0.161026 -0.263219 0.496507 0.403192 -0.280754 -0.355781 0.420837 -0.363734 -0.682698 0.403352 0.372965 0.235526 -0.239446 0.209950 -0.282549 0.288721 0.441202 -0.638714 -0.554382 -0.521817 -0.017520 -0.063870 -0.517675 -0.278506 -0.298579 -0.029241 -0.298840 -0.032363 -0.081859 -0.393884 -0.212332 -0.455500 0.458878 -0.224187 -0.022021 -0.042956 -0.223796 -0.415194 -0.040990 -0.536370 -0.177679 0.047019
rapping 0.116766 0.513399 -0.105421 0.125906 0.518650 0.581394 0.663045 0.485021 -0.185485 0.880474 0.092303 0.015243 0.685449 0.420169 0.584352 0.528676 0.145440 -0.118725 -0.010834 -0.096129 0.340812 -0.033840 0.565487 0.255146 0.358244 0.163984 0.046390 -0.016262 0.193284 0.476676 0.239533 0.242929 0.510757 0.042138 0.399828 0.510754 -0.156213 0.428914 0.520729 0.327961 0.663311 0.214142 0.328457 -0.074133 0.454132 0.118481 -0.114300 0.357195 0.612395 -0.019574
marmalade 0.431402 0.658158 0.223953 0.644138 0.477596 0.207375 -0.144007 0.279915 0.503453 0.332970 -0.218872 0.409348 -0.175740 0.454904 0.134658 0.006826 0.178670 -0.206885 -0.233245 -0.150840 -0.234362 0.039315 0.042265 0.523613 -0.178436 -0.276114 -0.450344 -0.468878 0.155419 0.156535 0.255656 -0.060276 -0.333160 -0.109329 -0.100410 0.401583 0.021193 0.279046 0.304704 0.115834 -0.311239 0.398280 0.603889 0.328762 0.315060 -0.096835 0.072171 0.197830 0.104029 -0.141776
substance 0.323909 0.351463 0.075076 0.325999 0.670267 0.021911 0.082646 -0.141515 0.356694 0.527300 0.729108 -0.121819 0.134227 0.221728 0.032894 -0.219408 -0.057807 -0.159914 0.238800 0.172866 0.267404 0.524750 0.593413 0.476472 0.662446 0.036037 -0.227426 0.371492 -0.120418 -0.219967 0.209331 0.567251 0.495851 -0.026521 -0.050347 0.812674 -0.125102 0.277683 -0.134162 0.399406 0.603649 -0.115431 0.598483 0.616220 -0.185214 -0.147249 -0.327262 0.005955 0.631262 0.109029
stopped 0.085020 -0.015182 -0.240411 0.033268 0.886835 -0.148540 -0.963992 0.027362 -0.528377 -0.084090 0.012375 0.431091 -0.162655 0.201422 0.011890 -0.146270 -0.109083 -0.341286 0.200381 0.020703 -0.198017 -0.074637 -0.879722 0.163212 -0.185585 -0.531517 0.066242 -0.647028 0.116656 -0.080620 -0.669532 -0.641958 -0.287417 -0.160590 -0.201770 1.172014 0.595729 -0.915002 -0.213670 -0.348866 -0.331773 -0.585873 0.384118 -0.028460 0.166067 -0.119664 -0.630335 -0.278169 -0.435022 -0.268993
cracker 0.231642 0.123532 0.019598 0.519616 0.472774 0.793436 0.194516 0.696933 0.093648 0.352809 0.823287 0.888137 0.544813 0.096014 0.625737 0.849675 0.299831 0.547030 0.338589 0.619563 0.191137 0.388017 0.536224 0.594435 0.606838 0.277076 -0.128029 0.039468 0.438193 0.601806 -0.077140 0.260685 0.264126 0.689255 -0.101688 0.906977 0.449826 0.850683 0.809599 0.039273 -0.058518 0.304870 0.077087 0.301707 0.323640 0.691072 0.805872 0.051407 0.595746 0.672425
visiting 0.098255 0.470053 0.183556 0.363729 0.388151 0.493390 0.515077 -0.093746 0.226090 0.195409 0.604531 0.399790 0.422238 0.289335 0.462897 0.232329 0.057827 0.756335 0.013512 0.232003 0.525686 0.019065 0.591827 0.635015 0.164264 0.181683 0.447755 0.375647 0.191237 0.082128 0.536858 0.550594 0.326971 0.073626 0.008804 0.778757 0.339642 -0.127013 0.612086 0.350292 0.694018 0.396707 0.231234 0.197700 0.102301 0.234336 0.723950 0.630844 0.406629 -0.016353
tied 0.509255 -0.049608 0.266764 0.448349 0.129069 0.516761 0.373481 0.111584 0.073029 0.565255 0.023891 0.278922 0.374714 0.549331 0.489285 -0.009882 -0.078604 0.197390 -0.235867 0.135144 -0.208969 -0.317442 0.049932 0.017067 0.068208 -0.076643 0.449712 -0.263966 0.338842 0.686788 0.362171 0.093628 0.505302 0.396315 0.507117 0.449787 0.089483 0.141381 0.604578 -0.173643 -0.207849 0.629548 0.611508 0.012160 0.238063 -0.100408 0.479135 0.714495 -0.288727 0.676542
begin 0.720508 0.010738 -0.317041 -0.154537 0.087623 -0.017400 -0.448176 0.082028 0.029325 -0.230089 0.362797 -0.274054 0.044212 0.307366 0.274731 -0.372923 0.433896 0.580068 0.468738 0.503972 0.448224 0.034079 -0.377514 0.403896 0.107398 -0.078255 0.036475 -0.063668 0.387047 0.090132 0.038701 -0.245999 -0.209555 0.452993 0.512412 0.351322 0.266165 -0.475358 0.174563 -0.152201 -0.199770 0.341048 -0.093442 -0.329451 0.334255 0.236263 0.167716 0.517804 0.580846 0.137868
answers 0.400205 0.020462 0.307048 0.497282 0.115698 0.756638 0.762627 0.884631 0.424092 0.203896 0.746789 0.256631 0.188159 0.849214 -0.029207 0.372240 0.161271 0.482671 0.455691 0.333594 0.250863 0.024927 -0.005622 0.564895 0.373737 0.847112 0.354441 0.689810 0.465127 0.704516 0.836574 0.455208 0.873218 0.695777 0.545422 0.830454 0.855816 0.634113 0.650946 0.035378 0.203978 -0.059713 0.106537 0.465269 0.619481 0.749718 0.121262 -0.014083 0.565892 0.555369
dogs 0.279064 0.889503 0.847224 0.959492 0.799146 0.391289 -0.030846 0.414348 0.559611 0.841307 0.853109 0.022732 0.789774 0.115026 -0.003169 0.708459 0.605104 0.605780 0.762188 0.450469 0.741417 -0.028771 -0.082744 0.585551 0.152289 0.868195 -0.002732 0.859130 0.916377 0.483259 0.652246 0.268989 0.932957 0.351956 0.874807 0.393433 0.804611 0.583754 0.881230 0.753075 0.012353 0.216701 0.110997 0.626248 0.156752 0.644118 -0.075813 0.642491 0.529024 0.838372
rude 0.612948 -0.277155 0.213514 0.001709 0.264266 0.434179 -0.180482 -0.208790 0.380398 -0.388204 0.015995 0.163727 -0.134283 0.255697 0.102196 -0.168522 0.389406 -0.222908 0.451684 -0.143722 0.034256 0.179370 0.045445 0.434342 -0.030211 -0.034358 -0.176368 -0.314494 0.184767 -0.064240 -0.280606 0.398142 -0.344370 -0.451883 0.496794 0.770897 0.276527 -0.655433 0.061554 -0.097467 -0.215902 -0.292344 0.387525 -0.098170 0.174007 -0.463628 -0.073273 -0.450881 0.032933 0.536031
schedules 0.097291 0.825790 0.124008 -0.040802 0.390118 0.131546 0.152638 0.610950 -0.138331 -0.088426 0.833426 0.258692 0.161989 0.506156 0.169065 0.051589 0.737640 0.460871 0.406893 0.745032 0.342692 0.768251 -0.113788 0.758053 0.781132 -0.030888 0.629281 0.540067 0.542700 0.721306 0.075638 0.223624 0.567211 -0.072105 0.495585 0.901066 0.296984 0.093553 -0.058484 0.147880 -0.037622 0.234332 0.773678 0.261619 0.739208 0.288669 -0.118322 0.054188 -0.034056 0.488356
window 0.735488 -0.326204 -0.605967 0.489218 0.777761 -0.387711 -0.912923 -0.215161 -0.182919 -0.439450 0.206588 0.125915 -0.324449 0.642684 0.487051 0.027577 -0.502925 -0.004506 -0.170596 0.145521 -0.562833 -0.575645 -1.279132 -0.068992 -0.025789 -0.607480 -0.066976 -0.836299 -0.003596 0.237218 -1.237365 -0.046323 -0.428402 -0.724800 -0.018405 0.655657 0.247889 -0.498458 -0.424541 -0.277398 0.136703 -0.652122 0.311850 -0.073820 0.037742 -0.254222 -0.302194 -0.096196 -0.171423 -0.211972
mount 0.890343 -0.044229 0.639797 0.901527 0.758764 0.492264 0.623230 0.682457 0.708164 0.552921 0.466692 0.285572 0.067749 -0.095722 0.352563 0.819168 0.407941 -0.036262 0.518075 0.571354 -0.086844 0.732219 0.218686 0.366313 0.345678 0.144077 0.614528 0.760107 0.014689 0.108720 0.201664 -0.081367 0.589034 0.255625 0.288417 0.705459 0.002151 0.626557 0.362428 0.817272 0.230308 0.623348 0.804244 0.211987 0.362740 0.004581 -0.054667 -0.022224 0.546443 0.298825
apart 0.094686 -0.409372 0.047384 0.409217 1.022277 -0.057299 -0.301962 0.189311 -0.160473 -0.233683 0.642144 0.349620 -0.189459 0.078221 0.181452 -0.056812 -0.343719 -0.136370 0.423416 0.207752 0.072515 0.001281 -0.782640 0.269458 -0.198102 -0.731224 -0.693393 -0.425034 -0.377811 -0.151096 -1.098479 -0.685004 0.254624 -0.300884 -0.556458 0.763139 -0.215413 -0.209266 -0.174230 -0.178485 0.345233 -0.193038 0.164775 0.098446 -0.304148 -0.542536 -0.027706 -0.425351 -0.325163 -0.148075
Love 0.844016 0.803397 0.582461 0.621085 0.101737 0.266355 0.721416 0.998506 0.463235 0.023553 0.753349 0.455120 0.810586 0.662782 0.966768 0.494975 0.432823 0.286276 0.293256 0.532422 0.145936 0.486623 0.470460 0.961463 0.773787 0.247873 0.598329 0.510784 0.170453 0.506095 0.451503 0.043713 0.547493 0.654990 0.536350 0.299262 0.736890 0.911688 0.368194 0.871117 0.912797 0.207914 0.104024 0.071130 0.391280 0.593394 0.596097 0.364543 0.070258 0.496160
taught 0.543700 -0.255082 0.500042 0.069691 0.182816 -0.113674 -0.038810 -0.149215 -0.134239 0.321973 0.459765 0.082046 0.481517 0.732786 -0.206231 -0.210101 0.033208 -0.168377 0.252240 0.213008 0.494430 -0.128576 0.180457 0.569065 -0.170598 -0.389692 -0.389777 -0.413806 -0.214609 0.601478 -0.574707 0.296719 0.320393 0.010652 0.530653 0.160685 0.008604 0.152133 0.099879 -0.218752 0.231678 -0.060828 0.706261 -0.147343 0.345548 0.016159 -0.356446 -0.026623 0.031949 -0.060632
Curses 0.668131 -0.137922 0.012941 0.462728 0.477087 0.020338 0.118623 0.291803 0.444257 0.490510 0.445373 0.668851 0.195751 0.530925 -0.104516 0.073384 0.645588 0.721321 0.410970 0.233238 -0.197140 0.079317 -0.048836 0.844659 0.640475 0.140182 0.125233 0.278610 -0.058217 0.690064 0.139328 0.477555 0.402254 0.581048 0.682100 0.358326 0.309878 0.568815 -0.060835 0.547225 0.314280 0.407825 0.007481 0.419453 -0.052549 0.174796 0.105930 0.279314 -0.054293 0.673872
nagging 0.876063 0.769929 0.683040 0.076090 0.838604 0.194529 0.104036 0.688890 0.418517 0.353178 0.850783 0.704406 0.727256 0.698227 -0.108736 0.331434 0.623959 0.494895 0.480513 0.039339 0.394996 0.422779 0.643567 0.340258 0.810895 0.022120 -0.057468 -0.257302 0.663905 0.108032 0.348032 0.679576 0.233362 0.098923 0.645625 0.105178 0.733057 0.264043 0.221425 -0.180790 0.092587 0.380733 0.362491 0.731893 0.425954 0.598088 0.529232 0.568970 0.803434 0.632763
omen 0.468758 0.287497 0.237806 0.913827 0.309496 -0.010953 0.631801 0.174639 0.004819 0.381526 0.600313 0.357310 -0.036008 0.071586 0.620298 0.547676 0.321848 0.599192 0.734663 0.685971 0.759368 0.523296 -0.069347 0.544280 -0.007528 -0.055761 0.233436 0.345619 0.083615 0.770548 0.171858 0.033257 0.427434 0.215135 0.824803 0.689899 0.915060 0.498687 0.781833 0.526359 0.526313 0.417540 0.338265 0.420843 0.163670 0.316512 -0.099163 0.695031 0.816731 0.619481
pouch 0.784354 0.711737 -0.168452 0.431612 0.372699 0.038102 -0.258483 -0.128830 -0.161505 -0.048346 0.410425 0.706191 -0.141941 0.191183 0.227519 -0.145111 0.297018 -0.163723 0.277313 0.237313 0.634071 -0.261465 0.449724 0.024123 -0.130367 0.645638 -0.165189 -0.029778 0.653284 0.363034 -0.215826 0.030968 0.536782 0.233259 0.131276 0.615884 0.188968 -0.148560 -0.066796 -0.132179 -0.104119 -0.122335 -0.120350 0.226814 0.704669 0.355701 0.712698 0.514138 0.303165 0.455095
boiled -0.197220 -0.027148 0.191605 0.661429 0.505406 0.204561 0.202845 0.381344 0.208774 0.152575 0.303041 -0.003837 -0.226502 0.710663 0.521387 -0.342006 0.447504 0.050061 0.301148 0.122155 -0.097820 -0.000053 -0.372412 0.455343 0.604460 0.483797 -0.194098 0.371958 -0.061703 -0.211066 0.174192 -0.111939 0.529875 -0.022074 -0.252438 0.090267 0.432396 -0.210694 0.602461 -0.352875 0.220988 -0.198034 0.037893 0.295433 0.069988 0.141016 -0.292912 0.148938 -0.256866 0.160921
Please 0.385539 -0.425021 0.206322 0.136729 0.764827 -0.087840 -0.443589 -0.078708 -0.400265 -0.033802 0.377152 -0.516898 -0.224336 0.367259 -0.338281 0.236695 -0.022882 -0.231449 0.265979 -0.166097 -0.195215 -0.273510 0.028505 -0.211598 0.396075 -0.396026 0.086701 -0.135953 0.122779 -0.193213 -0.666190 0.000889 0.407543 -0.624849 -0.349887 0.386171 0.409030 0.047238 0.445883 0.056071 -0.410636 -0.691747 0.196676 -0.075636 -0.317175 -0.258474 -0.544687 0.175489 0.349368 0.270125
ought 0.238742 -0.479481 0.421051 0.118875 0.460126 -0.212164 -0.441223 0.476949 -0.224757 -0.409042 0.441840 0.336767 0.416361 0.556387 0.329273 0.215336 -0.196381 -0.022985 -0.033007 -0.185539 0.102290 -0.579134 -0.395537 -0.343833 0.307820 0.131699 0.218570 -0.833898 -0.545914 -0.304172 -0.824790 -0.582372 0.073988 -0.098302 -0.348334 0.213812 0.404225 -0.554940 -0.362103 0.011696 0.240009 0.148199 0.059962 -0.010388 -0.455068 -0.153730 0.377077 0.050636 0.137363 -0.228210
point 0.451328 -0.327418 -0.153256 0.297368 1.107978 -0.440364 -0.675455 0.259407 0.068830 0.190598 -0.213498 -0.362332 0.201269 0.221344 -0.117835 -0.478066 -0.271228 -0.027183 -0.107212 -0.071728 0.024522 -0.222011 -0.649060 0.259325 -0.179558 -0.165583 -0.301550 -0.481274 -0.447864 -0.024321 -0.658490 -0.191060 -0.293926 -0.548491 -0.618095 0.918347 -0.064308 -0.730013 -0.381816 -0.589428 -0.038828 -0.467077 0.682422 -0.590159 0.083102 -0.067059 0.045814 -0.125776 0.078062 -0.254279
Mad -0.065066 0.720082 0.033151 -0.090851 0.528112 0.466681 0.527616 -0.073099 0.006873 0.161609 0.767956 0.450130 0.919984 0.664604 0.407664 -0.013984 0.065246 0.652863 0.675758 0.857685 0.794859 0.131267 0.422239 0.055016 0.516176 0.842616 0.697124 0.314583 0.189937 0.184134 0.660443 0.606839 0.148501 0.806162 0.356420 0.777948 0.663412 0.258557 0.652500 0.295560 0.328821 0.826487 0.804203 0.154344 0.650929 0.354507 0.244182 -0.019966 0.641666 0.080280
knickerbocker 0.695655 -0.247604 0.493297 0.203846 0.227470 0.387998 -0.158582 0.537758 0.429096 0.315385 -0.116220 -0.178603 0.118830 0.382332 0.592678 0.328763 0.079458 -0.051686 0.223459 0.575926 0.472791 0.331196 0.501432 0.159356 0.337367 -0.173323 -0.182786 -0.397372 0.267497 0.315488 -0.421194 0.532786 0.177493 -0.072007 -0.251495 0.014442 0.584322 0.470314 0.443885 0.062820 0.319540 -0.139098 0.195269 0.138861 -0.140633 0.097352 -0.350728 0.716127 -0.108095 0.351793
Instead 0.583431 0.323209 0.309874 0.349088 0.229388 0.078914 -0.760142 0.101606 0.292363 -0.115897 0.612842 -0.289315 -0.019436 0.347953 -0.203184 0.256777 -0.280618 -0.325208 -0.367005 0.279503 0.146529 -0.288858 0.194010 0.287000 0.354427 0.092676 0.383141 -0.713747 -0.471439 -0.108042 -0.083459 -0.301376 -0.155078 -0.100721 -0.429939 0.292438 -0.226520 -0.435912 0.073842 -0.561560 -0.147759 -0.662098 -0.235913 -0.325330 -0.214922 0.170391 0.183814 0.316274 -0.132086 -0.299228
memory 0.530581 -0.118460 -0.222911 -0.155196 0.528274 0.022045 -0.083447 0.194139 -0.109139 -0.282672 0.301025 0.238224 0.346922 0.701099 0.185423 0.594702 0.225670 0.372815 0.418480 -0.257214 0.531162 -0.337554 0.398605 -0.002238 0.465886 -0.260132 0.544718 0.373489 0.184480 0.056882 0.035170 0.290401 -0.134866 0.490849 0.615542 0.418670 -0.130783 -0.086071 0.288010 0.353360 0.017711 0.324107 0.426076 0.078885 0.536974 0.520058 0.251238 -0.071989 -0.263436 0.254535
hangings 0.296029 0.291345 0.394346 -0.086427 0.660436 0.341766 0.450062 0.664026 0.554790 0.798417 0.809002 0.609682 0.281545 0.436760 0.438286 0.032000 0.138645 0.613393 0.500971 0.672764 0.855667 0.266783 0.617035 0.302609 0.739052 0.031365 0.624768 0.309445 0.745136 0.227671 0.595438 0.803786 0.128160 0.612532 0.639127 0.781794 0.464340 0.434805 0.418981 0.708003 0.725542 0.254665 0.608896 0.417356 0.455108 0.035879 0.382963 -0.110552 -0.040344 0.554683
judge 0.628909 0.072492 0.632747 0.309094 0.339008 0.109953 0.615411 0.321225 0.131297 0.292429 0.029502 0.606957 0.360406 0.655341 0.122929 0.220842 0.316218 0.391803 0.114522 0.606471 0.743298 0.207040 0.611953 0.599381 0.216377 0.077242 0.627436 0.210521 -0.083740 0.507129 0.420974 0.076958 0.757774 0.704128 -0.152574 0.119307 0.826040 -0.048479 0.266498 0.541574 0.820025 0.165156 0.056473 0.783257 -0.059057 0.233379 0.366453 -0.029471 0.611118 -0.040965
Books 0.082129 0.597479 0.858122 0.860380 0.463962 0.893079 0.308262 0.223359 0.259179 0.515318 0.472231 -0.019201 0.786197 0.057383 0.794189 0.003351 -0.008902 0.205721 0.374834 0.328304 0.743483 0.694133 0.765700 0.238302 -0.051113 0.060027 0.450853 -0.111032 0.623575 0.319178 0.690292 0.527030 0.610925 0.205871 0.530552 0.518205 0.379713 0.388666 0.705981 -0.012620 0.325115 0.508540 0.343015 0.384776 0.035934 0.898437 0.627031 0.760542 0.318908 0.195822
Send -0.135089 0.536993 -0.305031 -0.105816 -0.008140 0.431147 -0.134612 0.520693 0.155592 -0.277220 -0.128891 -0.142830 0.278963 -0.182257 0.363173 0.414194 0.183937 -0.098257 0.567645 0.286959 0.131614 -0.411199 -0.379478 0.243977 0.280473 -0.168266 0.104832 -0.427473 -0.137306 0.395806 -0.494084 -0.144465 0.368981 0.369164 0.184647 0.353308 0.595475 -0.351226 0.311447 0.114716 -0.040814 -0.366286 0.092952 0.190897 0.567088 -0.166759 -0.139863 -0.064298 0.435459 0.415219
brushing 0.720854 0.544875 0.177972 0.362082 0.826822 0.170578 0.643599 0.854490 -0.089126 0.200281 0.354294 -0.046598 0.828981 0.274680 0.667608 0.756950 0.713848 0.707202 0.002766 0.189045 0.737143 0.745602 0.212184 0.046112 0.575041 0.831329 0.594922 0.649888 0.461053 0.315733 -0.075022 -0.092995 0.214960 0.512391 -0.111503 0.543227 -0.084228 0.376256 -0.058853 0.612270 0.148758 0.041599 0.681205 0.223320 0.070904 0.227037 -0.067685 0.618216 0.135478 -0.104032
Nicolas 0.647574 0.143994 -0.165804 -0.054600 0.935575 0.055485 -0.365185 0.387613 -0.114651 -0.221635 -0.160860 0.106429 0.120211 -0.088195 -0.215524 -0.483184 -0.312585 -0.051621 0.179251 0.025962 -0.195104 -0.634687 -0.197803 -0.312090 0.248510 -0.531071 -0.574733 -0.601194 0.152624 0.177588 -0.873371 -0.185009 0.335327 -0.008000 0.092833 0.683908 0.160510 -0.087681 -0.144047 -0.373318 -0.370070 -0.531319 0.418100 -0.575962 0.553624 0.041006 -0.720704 -0.347224 -0.404016 -0.084447
expects 0.678286 0.374939 -0.065822 0.266025 0.713837 0.382701 0.384631 0.535289 0.200688 0.126976 0.193879 0.385119 0.196872 0.237128 0.077568 0.796984 0.098964 0.443677 0.358179 0.032041 -0.104748 0.171405 -0.034777 0.705035 0.563903 0.227187 0.645139 0.325774 0.327434 0.147254 0.712781 0.611832 0.108992 0.287304 0.393377 0.595546 0.259037 0.736154 0.495961 -0.106186 -0.031781 0.188992 -0.049409 0.414717 -0.104985 0.403656 0.321115 -0.053061 0.008231 0.711082
Calm 0.634766 0.776159 0.440807 0.310333 0.074328 0.356321 0.700710 0.856045 0.176751 0.199417 0.126260 0.405692 0.858199 0.915552 0.467418 0.170550 0.118792 -0.028703 0.266093 0.642393 0.517100 0.588031 0.443558 0.363024 0.086711 0.152332 0.133713 0.495204 0.345565 0.832657 0.331458 0.600328 0.161647 0.385720 0.140773 0.884516 0.369090 0.503315 0.232911 0.461351 0.644592 0.760149 0.213723 0.895841 0.672686 0.864153 -0.040821 0.303753 0.873097 0.753840
